<?xml version="1.0"?>
<opencv_storage>
<cascade>
  <stageType>BOOST</stageType>
  <featureType>HAAR</featureType>
  <height>38</height>
  <width>33</width>
  <stageParams>
    <boostType>GAB</boostType>
    <minHitRate>9.9500000476837158e-01</minHitRate>
    <maxFalseAlarm>5.0000000000000000e-01</maxFalseAlarm>
    <weightTrimRate>9.4999999999999996e-01</weightTrimRate>
    <maxDepth>1</maxDepth>
    <maxWeakCount>100</maxWeakCount></stageParams>
  <featureParams>
    <maxCatCount>0</maxCatCount>
    <featSize>1</featSize>
    <mode>BASIC</mode></featureParams>
  <stageNum>17</stageNum>
  <stages>
    <!-- stage 0 -->
    <_>
      <maxWeakCount>4</maxWeakCount>
      <stageThreshold>-1.0313421487808228e+00</stageThreshold>
      <weakClassifiers>
        <_>
          <internalNodes>
            0 -1 54 -1.7866060137748718e-02</internalNodes>
          <leafValues>
            6.6326528787612915e-01 -6.8592059612274170e-01</leafValues></_>
        <_>
          <internalNodes>
            0 -1 109 -6.4141291659325361e-04</internalNodes>
          <leafValues>
            3.9086201786994934e-01 -7.5040292739868164e-01</leafValues></_>
        <_>
          <internalNodes>
            0 -1 55 4.1273240000009537e-02</internalNodes>
          <leafValues>
            -3.7200564146041870e-01 7.9604691267013550e-01</leafValues></_>
        <_>
          <internalNodes>
            0 -1 13 -4.6691514551639557e-02</internalNodes>
          <leafValues>
            8.7105590105056763e-01 -3.6427792906761169e-01</leafValues></_></weakClassifiers></_>
    <!-- stage 1 -->
    <_>
      <maxWeakCount>7</maxWeakCount>
      <stageThreshold>-1.2506842613220215e+00</stageThreshold>
      <weakClassifiers>
        <_>
          <internalNodes>
            0 -1 98 -3.6389785818755627e-03</internalNodes>
          <leafValues>
            3.4042552113533020e-01 -7.3931622505187988e-01</leafValues></_>
        <_>
          <internalNodes>
            0 -1 134 1.0099863633513451e-02</internalNodes>
          <leafValues>
            -4.1598999500274658e-01 7.0071297883987427e-01</leafValues></_>
        <_>
          <internalNodes>
            0 -1 110 -1.0246763122268021e-04</internalNodes>
          <leafValues>
            2.8138011693954468e-01 -7.5135064125061035e-01</leafValues></_>
        <_>
          <internalNodes>
            0 -1 12 3.3267445862293243e-02</internalNodes>
          <leafValues>
            -3.0244812369346619e-01 7.4526607990264893e-01</leafValues></_>
        <_>
          <internalNodes>
            0 -1 158 1.1086476966738701e-02</internalNodes>
          <leafValues>
            -4.4372543692588806e-01 4.1393986344337463e-01</leafValues></_>
        <_>
          <internalNodes>
            0 -1 178 -2.5521099567413330e-02</internalNodes>
          <leafValues>
            7.9900497198104858e-01 -1.8498229980468750e-01</leafValues></_>
        <_>
          <internalNodes>
            0 -1 173 4.1528893634676933e-03</internalNodes>
          <leafValues>
            -2.5452411174774170e-01 6.4927643537521362e-01</leafValues></_></weakClassifiers></_>
    <!-- stage 2 -->
    <_>
      <maxWeakCount>8</maxWeakCount>
      <stageThreshold>-1.4343219995498657e+00</stageThreshold>
      <weakClassifiers>
        <_>
          <internalNodes>
            0 -1 23 -5.5991031229496002e-02</internalNodes>
          <leafValues>
            5.9440559148788452e-01 -5.5189454555511475e-01</leafValues></_>
        <_>
          <internalNodes>
            0 -1 69 1.3072721660137177e-02</internalNodes>
          <leafValues>
            -5.5410593748092651e-01 4.4007033109664917e-01</leafValues></_>
        <_>
          <internalNodes>
            0 -1 68 -2.6744721457362175e-02</internalNodes>
          <leafValues>
            7.3389351367950439e-01 -2.1298782527446747e-01</leafValues></_>
        <_>
          <internalNodes>
            0 -1 105 1.7747985199093819e-02</internalNodes>
          <leafValues>
            -2.7847647666931152e-01 7.1123665571212769e-01</leafValues></_>
        <_>
          <internalNodes>
            0 -1 79 1.3825215864926577e-04</internalNodes>
          <leafValues>
            2.6043120026588440e-01 -6.3977634906768799e-01</leafValues></_>
        <_>
          <internalNodes>
            0 -1 136 -1.3981210067868233e-03</internalNodes>
          <leafValues>
            3.3398476243019104e-01 -4.3469005823135376e-01</leafValues></_>
        <_>
          <internalNodes>
            0 -1 22 -4.9082294572144747e-04</internalNodes>
          <leafValues>
            -7.5825935602188110e-01 1.8326669931411743e-01</leafValues></_>
        <_>
          <internalNodes>
            0 -1 21 2.8484233189374208e-04</internalNodes>
          <leafValues>
            2.1221733093261719e-01 -6.1453980207443237e-01</leafValues></_></weakClassifiers></_>
    <!-- stage 3 -->
    <_>
      <maxWeakCount>7</maxWeakCount>
      <stageThreshold>-1.2192562818527222e+00</stageThreshold>
      <weakClassifiers>
        <_>
          <internalNodes>
            0 -1 1 1.5216642618179321e-01</internalNodes>
          <leafValues>
            -4.7861927747726440e-01 5.7928800582885742e-01</leafValues></_>
        <_>
          <internalNodes>
            0 -1 104 -6.6782901994884014e-03</internalNodes>
          <leafValues>
            5.8827197551727295e-01 -3.1640475988388062e-01</leafValues></_>
        <_>
          <internalNodes>
            0 -1 127 -1.4921618276275694e-04</internalNodes>
          <leafValues>
            2.4368214607238770e-01 -6.3621616363525391e-01</leafValues></_>
        <_>
          <internalNodes>
            0 -1 156 -2.6362479547969997e-04</internalNodes>
          <leafValues>
            -7.4122881889343262e-01 1.8533349037170410e-01</leafValues></_>
        <_>
          <internalNodes>
            0 -1 95 2.8566241962835193e-04</internalNodes>
          <leafValues>
            1.5039715170860291e-01 -8.1310999393463135e-01</leafValues></_>
        <_>
          <internalNodes>
            0 -1 86 -1.0685923043638468e-03</internalNodes>
          <leafValues>
            -8.9979755878448486e-01 1.3480952382087708e-01</leafValues></_>
        <_>
          <internalNodes>
            0 -1 82 -2.1583776921033859e-02</internalNodes>
          <leafValues>
            6.9007188081741333e-01 -2.1189229190349579e-01</leafValues></_></weakClassifiers></_>
    <!-- stage 4 -->
    <_>
      <maxWeakCount>9</maxWeakCount>
      <stageThreshold>-1.1177285909652710e+00</stageThreshold>
      <weakClassifiers>
        <_>
          <internalNodes>
            0 -1 139 2.3632928787264973e-04</internalNodes>
          <leafValues>
            -6.6775244474411011e-01 6.8493150174617767e-02</leafValues></_>
        <_>
          <internalNodes>
            0 -1 187 -1.0202059522271156e-02</internalNodes>
          <leafValues>
            6.5328735113143921e-01 -2.7715736627578735e-01</leafValues></_>
        <_>
          <internalNodes>
            0 -1 24 -6.9958552718162537e-02</internalNodes>
          <leafValues>
            6.7168384790420532e-01 -1.9787254929542542e-01</leafValues></_>
        <_>
          <internalNodes>
            0 -1 135 -1.9275263184681535e-04</internalNodes>
          <leafValues>
            2.3426307737827301e-01 -6.9159781932830811e-01</leafValues></_>
        <_>
          <internalNodes>
            0 -1 166 -9.3896929174661636e-03</internalNodes>
          <leafValues>
            5.5690735578536987e-01 -2.0710161328315735e-01</leafValues></_>
        <_>
          <internalNodes>
            0 -1 175 1.6031026840209961e-02</internalNodes>
          <leafValues>
            -2.3578284680843353e-01 7.1618282794952393e-01</leafValues></_>
        <_>
          <internalNodes>
            0 -1 16 -1.4142825966700912e-03</internalNodes>
          <leafValues>
            4.8582392930984497e-01 -2.5280481576919556e-01</leafValues></_>
        <_>
          <internalNodes>
            0 -1 155 -1.1345489183440804e-03</internalNodes>
          <leafValues>
            3.9325451850891113e-01 -3.4606182575225830e-01</leafValues></_>
        <_>
          <internalNodes>
            0 -1 131 -1.0693534277379513e-03</internalNodes>
          <leafValues>
            -5.8602803945541382e-01 2.0712882280349731e-01</leafValues></_></weakClassifiers></_>
    <!-- stage 5 -->
    <_>
      <maxWeakCount>8</maxWeakCount>
      <stageThreshold>-1.2601411342620850e+00</stageThreshold>
      <weakClassifiers>
        <_>
          <internalNodes>
            0 -1 52 -3.0582958832383156e-02</internalNodes>
          <leafValues>
            2.8358209133148193e-01 -5.5919855833053589e-01</leafValues></_>
        <_>
          <internalNodes>
            0 -1 15 3.4539755433797836e-03</internalNodes>
          <leafValues>
            -3.0548524856567383e-01 5.5462211370468140e-01</leafValues></_>
        <_>
          <internalNodes>
            0 -1 61 -1.6293712542392313e-04</internalNodes>
          <leafValues>
            3.2078796625137329e-01 -5.5362075567245483e-01</leafValues></_>
        <_>
          <internalNodes>
            0 -1 3 3.3811263740062714e-02</internalNodes>
          <leafValues>
            -2.0982651412487030e-01 6.4675927162170410e-01</leafValues></_>
        <_>
          <internalNodes>
            0 -1 124 -1.0084162931889296e-03</internalNodes>
          <leafValues>
            5.5421358346939087e-01 -2.4666869640350342e-01</leafValues></_>
        <_>
          <internalNodes>
            0 -1 149 -3.4124296507798135e-04</internalNodes>
          <leafValues>
            4.0214502811431885e-01 -3.6844497919082642e-01</leafValues></_>
        <_>
          <internalNodes>
            0 -1 92 -4.8762885853648186e-03</internalNodes>
          <leafValues>
            6.4328682422637939e-01 -2.0696245133876801e-01</leafValues></_>
        <_>
          <internalNodes>
            0 -1 65 -1.0784021578729153e-03</internalNodes>
          <leafValues>
            4.1947606205940247e-01 -3.0543449521064758e-01</leafValues></_></weakClassifiers></_>
    <!-- stage 6 -->
    <_>
      <maxWeakCount>9</maxWeakCount>
      <stageThreshold>-1.2511506080627441e+00</stageThreshold>
      <weakClassifiers>
        <_>
          <internalNodes>
            0 -1 70 -1.9614775665104389e-03</internalNodes>
          <leafValues>
            1.3645224273204803e-02 -6.2418299913406372e-01</leafValues></_>
        <_>
          <internalNodes>
            0 -1 66 1.0099802911281586e-01</internalNodes>
          <leafValues>
            -2.2157593071460724e-01 7.7309656143188477e-01</leafValues></_>
        <_>
          <internalNodes>
            0 -1 133 2.3888919502496719e-02</internalNodes>
          <leafValues>
            -1.9458356499671936e-01 6.1435115337371826e-01</leafValues></_>
        <_>
          <internalNodes>
            0 -1 101 -4.8314023297280073e-04</internalNodes>
          <leafValues>
            3.4605613350868225e-01 -4.0021473169326782e-01</leafValues></_>
        <_>
          <internalNodes>
            0 -1 100 4.1236873948946595e-04</internalNodes>
          <leafValues>
            1.5304733812808990e-01 -8.4003728628158569e-01</leafValues></_>
        <_>
          <internalNodes>
            0 -1 50 -2.3967029119376093e-04</internalNodes>
          <leafValues>
            -6.7270666360855103e-01 1.6951449215412140e-01</leafValues></_>
        <_>
          <internalNodes>
            0 -1 29 9.0198562247678638e-05</internalNodes>
          <leafValues>
            -4.2702728509902954e-01 2.4257063865661621e-01</leafValues></_>
        <_>
          <internalNodes>
            0 -1 46 -2.4997154250741005e-03</internalNodes>
          <leafValues>
            -5.9762018918991089e-01 1.9246570765972137e-01</leafValues></_>
        <_>
          <internalNodes>
            0 -1 49 7.6748628634959459e-04</internalNodes>
          <leafValues>
            1.0140635073184967e-01 -8.7805706262588501e-01</leafValues></_></weakClassifiers></_>
    <!-- stage 7 -->
    <_>
      <maxWeakCount>10</maxWeakCount>
      <stageThreshold>-1.2187484502792358e+00</stageThreshold>
      <weakClassifiers>
        <_>
          <internalNodes>
            0 -1 185 -2.5881729088723660e-03</internalNodes>
          <leafValues>
            4.7670251131057739e-01 -4.4799593091011047e-01</leafValues></_>
        <_>
          <internalNodes>
            0 -1 123 -1.1362330988049507e-03</internalNodes>
          <leafValues>
            5.0672841072082520e-01 -2.5426426529884338e-01</leafValues></_>
        <_>
          <internalNodes>
            0 -1 138 -3.2784935319796205e-04</internalNodes>
          <leafValues>
            2.9907727241516113e-01 -5.0624114274978638e-01</leafValues></_>
        <_>
          <internalNodes>
            0 -1 5 3.5298217087984085e-02</internalNodes>
          <leafValues>
            -1.9446812570095062e-01 5.5134534835815430e-01</leafValues></_>
        <_>
          <internalNodes>
            0 -1 145 2.5572929531335831e-02</internalNodes>
          <leafValues>
            -1.5615327656269073e-01 7.5923329591751099e-01</leafValues></_>
        <_>
          <internalNodes>
            0 -1 96 4.7041215002536774e-03</internalNodes>
          <leafValues>
            -1.8224060535430908e-01 5.1183766126632690e-01</leafValues></_>
        <_>
          <internalNodes>
            0 -1 53 -6.6704317927360535e-02</internalNodes>
          <leafValues>
            7.3879915475845337e-01 -1.2238739430904388e-01</leafValues></_>
        <_>
          <internalNodes>
            0 -1 170 -1.1428555473685265e-02</internalNodes>
          <leafValues>
            6.4709687232971191e-01 -1.4742062985897064e-01</leafValues></_>
        <_>
          <internalNodes>
            0 -1 172 -1.5765393152832985e-02</internalNodes>
          <leafValues>
            4.9237170815467834e-01 -2.8260099887847900e-01</leafValues></_>
        <_>
          <internalNodes>
            0 -1 129 1.6491737915202975e-04</internalNodes>
          <leafValues>
            -4.1357186436653137e-01 2.7030494809150696e-01</leafValues></_></weakClassifiers></_>
    <!-- stage 8 -->
    <_>
      <maxWeakCount>13</maxWeakCount>
      <stageThreshold>-1.3047064542770386e+00</stageThreshold>
      <weakClassifiers>
        <_>
          <internalNodes>
            0 -1 4 4.1973344981670380e-02</internalNodes>
          <leafValues>
            -5.0313389301300049e-01 2.6868686079978943e-01</leafValues></_>
        <_>
          <internalNodes>
            0 -1 6 -8.1703379750251770e-02</internalNodes>
          <leafValues>
            6.3044345378875732e-01 -2.0695753395557404e-01</leafValues></_>
        <_>
          <internalNodes>
            0 -1 88 4.9207765187020414e-06</internalNodes>
          <leafValues>
            -3.4660968184471130e-01 2.6132926344871521e-01</leafValues></_>
        <_>
          <internalNodes>
            0 -1 94 -4.5729084376944229e-06</internalNodes>
          <leafValues>
            2.6125231385231018e-01 -3.8329809904098511e-01</leafValues></_>
        <_>
          <internalNodes>
            0 -1 32 1.1811800068244338e-03</internalNodes>
          <leafValues>
            1.6929994523525238e-01 -8.1076580286026001e-01</leafValues></_>
        <_>
          <internalNodes>
            0 -1 103 -8.7660271674394608e-03</internalNodes>
          <leafValues>
            7.9231423139572144e-01 -1.6753339767456055e-01</leafValues></_>
        <_>
          <internalNodes>
            0 -1 38 -5.3691428547608666e-06</internalNodes>
          <leafValues>
            2.8202560544013977e-01 -3.5993537306785583e-01</leafValues></_>
        <_>
          <internalNodes>
            0 -1 115 8.5089320782572031e-04</internalNodes>
          <leafValues>
            1.4857284724712372e-01 -7.8406184911727905e-01</leafValues></_>
        <_>
          <internalNodes>
            0 -1 140 2.1998260170221329e-02</internalNodes>
          <leafValues>
            -2.1331900358200073e-01 4.7768837213516235e-01</leafValues></_>
        <_>
          <internalNodes>
            0 -1 107 1.3482326641678810e-02</internalNodes>
          <leafValues>
            -1.9082900881767273e-01 6.1091536283493042e-01</leafValues></_>
        <_>
          <internalNodes>
            0 -1 171 1.6236918047070503e-02</internalNodes>
          <leafValues>
            -1.4539225399494171e-01 6.6977828741073608e-01</leafValues></_>
        <_>
          <internalNodes>
            0 -1 58 -4.3653508328134194e-06</internalNodes>
          <leafValues>
            2.6230645179748535e-01 -3.9804029464721680e-01</leafValues></_>
        <_>
          <internalNodes>
            0 -1 59 -9.4601977616548538e-04</internalNodes>
          <leafValues>
            -8.6474561691284180e-01 1.3618768751621246e-01</leafValues></_></weakClassifiers></_>
    <!-- stage 9 -->
    <_>
      <maxWeakCount>11</maxWeakCount>
      <stageThreshold>-1.1198240518569946e+00</stageThreshold>
      <weakClassifiers>
        <_>
          <internalNodes>
            0 -1 93 -5.1223497837781906e-02</internalNodes>
          <leafValues>
            5.6190478801727295e-01 -4.2549020051956177e-01</leafValues></_>
        <_>
          <internalNodes>
            0 -1 106 -4.9339067190885544e-03</internalNodes>
          <leafValues>
            3.8746353983879089e-01 -3.8971945643424988e-01</leafValues></_>
        <_>
          <internalNodes>
            0 -1 111 -1.3755420513916761e-04</internalNodes>
          <leafValues>
            2.1693772077560425e-01 -7.2544538974761963e-01</leafValues></_>
        <_>
          <internalNodes>
            0 -1 85 -2.2967514814808965e-04</internalNodes>
          <leafValues>
            1.5989518165588379e-01 -7.4562156200408936e-01</leafValues></_>
        <_>
          <internalNodes>
            0 -1 191 -8.1665292382240295e-03</internalNodes>
          <leafValues>
            7.6887059211730957e-01 -1.4108066260814667e-01</leafValues></_>
        <_>
          <internalNodes>
            0 -1 113 -1.9037077436223626e-04</internalNodes>
          <leafValues>
            2.0884193480014801e-01 -5.5958986282348633e-01</leafValues></_>
        <_>
          <internalNodes>
            0 -1 56 1.3467313721776009e-02</internalNodes>
          <leafValues>
            -2.4212507903575897e-01 4.9523672461509705e-01</leafValues></_>
        <_>
          <internalNodes>
            0 -1 142 3.4051112015731633e-04</internalNodes>
          <leafValues>
            -3.2186612486839294e-01 3.5689017176628113e-01</leafValues></_>
        <_>
          <internalNodes>
            0 -1 183 -2.7749962173402309e-03</internalNodes>
          <leafValues>
            6.8238848447799683e-01 -1.4823786914348602e-01</leafValues></_>
        <_>
          <internalNodes>
            0 -1 150 2.8130267746746540e-03</internalNodes>
          <leafValues>
            -2.1656011044979095e-01 4.1304159164428711e-01</leafValues></_>
        <_>
          <internalNodes>
            0 -1 7 1.3454187661409378e-02</internalNodes>
          <leafValues>
            -2.8372481465339661e-01 3.9239922165870667e-01</leafValues></_></weakClassifiers></_>
    <!-- stage 10 -->
    <_>
      <maxWeakCount>14</maxWeakCount>
      <stageThreshold>-1.2949988842010498e+00</stageThreshold>
      <weakClassifiers>
        <_>
          <internalNodes>
            0 -1 17 3.2335828291252255e-04</internalNodes>
          <leafValues>
            -5.7925492525100708e-01 4.8808172345161438e-02</leafValues></_>
        <_>
          <internalNodes>
            0 -1 34 4.2174674570560455e-02</internalNodes>
          <leafValues>
            -2.0773726701736450e-01 5.1169168949127197e-01</leafValues></_>
        <_>
          <internalNodes>
            0 -1 97 4.5272987335920334e-04</internalNodes>
          <leafValues>
            -2.7478727698326111e-01 3.8785052299499512e-01</leafValues></_>
        <_>
          <internalNodes>
            0 -1 99 3.4462002804502845e-04</internalNodes>
          <leafValues>
            -2.6247873902320862e-01 3.4243610501289368e-01</leafValues></_>
        <_>
          <internalNodes>
            0 -1 188 -3.8589995820075274e-03</internalNodes>
          <leafValues>
            6.0770738124847412e-01 -1.5167884528636932e-01</leafValues></_>
        <_>
          <internalNodes>
            0 -1 153 1.5537582337856293e-02</internalNodes>
          <leafValues>
            -1.3797520101070404e-01 5.7189220190048218e-01</leafValues></_>
        <_>
          <internalNodes>
            0 -1 143 4.5024320483207703e-02</internalNodes>
          <leafValues>
            -8.2158327102661133e-02 7.2900545597076416e-01</leafValues></_>
        <_>
          <internalNodes>
            0 -1 186 1.5312898904085159e-02</internalNodes>
          <leafValues>
            -1.0627450793981552e-01 8.3271467685699463e-01</leafValues></_>
        <_>
          <internalNodes>
            0 -1 89 3.0545622576028109e-04</internalNodes>
          <leafValues>
            1.1093669384717941e-01 -9.7316777706146240e-01</leafValues></_>
        <_>
          <internalNodes>
            0 -1 83 6.6160253481939435e-05</internalNodes>
          <leafValues>
            1.3387313485145569e-01 -4.6745634078979492e-01</leafValues></_>
        <_>
          <internalNodes>
            0 -1 25 2.7430245652794838e-02</internalNodes>
          <leafValues>
            -1.3762256503105164e-01 6.9575685262680054e-01</leafValues></_>
        <_>
          <internalNodes>
            0 -1 26 3.7603911478072405e-03</internalNodes>
          <leafValues>
            -1.9899971783161163e-01 4.2763927578926086e-01</leafValues></_>
        <_>
          <internalNodes>
            0 -1 74 -2.2178553626872599e-04</internalNodes>
          <leafValues>
            2.7534189820289612e-01 -3.7154504656791687e-01</leafValues></_>
        <_>
          <internalNodes>
            0 -1 137 6.7411601776257157e-05</internalNodes>
          <leafValues>
            -3.1857305765151978e-01 2.6487448811531067e-01</leafValues></_></weakClassifiers></_>
    <!-- stage 11 -->
    <_>
      <maxWeakCount>14</maxWeakCount>
      <stageThreshold>-1.1313247680664062e+00</stageThreshold>
      <weakClassifiers>
        <_>
          <internalNodes>
            0 -1 165 -2.2016657516360283e-02</internalNodes>
          <leafValues>
            2.4271844327449799e-01 -4.6245920658111572e-01</leafValues></_>
        <_>
          <internalNodes>
            0 -1 181 -2.2613233886659145e-03</internalNodes>
          <leafValues>
            -4.9226745963096619e-01 1.4870060980319977e-01</leafValues></_>
        <_>
          <internalNodes>
            0 -1 80 -8.7233370868489146e-04</internalNodes>
          <leafValues>
            2.8989991545677185e-01 -3.0071204900741577e-01</leafValues></_>
        <_>
          <internalNodes>
            0 -1 169 1.3831184245646000e-02</internalNodes>
          <leafValues>
            1.5309564769268036e-01 -7.5770080089569092e-01</leafValues></_>
        <_>
          <internalNodes>
            0 -1 163 -1.5089474618434906e-03</internalNodes>
          <leafValues>
            4.0080690383911133e-01 -2.3906917870044708e-01</leafValues></_>
        <_>
          <internalNodes>
            0 -1 152 2.1985634230077267e-03</internalNodes>
          <leafValues>
            -2.2318163514137268e-01 4.4148254394531250e-01</leafValues></_>
        <_>
          <internalNodes>
            0 -1 102 -1.3200909597799182e-04</internalNodes>
          <leafValues>
            2.5322243571281433e-01 -3.9334845542907715e-01</leafValues></_>
        <_>
          <internalNodes>
            0 -1 35 -9.1098551638424397e-04</internalNodes>
          <leafValues>
            3.5715779662132263e-01 -2.8892737627029419e-01</leafValues></_>
        <_>
          <internalNodes>
            0 -1 118 -4.4207862811163068e-04</internalNodes>
          <leafValues>
            -5.3584212064743042e-01 1.8337675929069519e-01</leafValues></_>
        <_>
          <internalNodes>
            0 -1 44 -4.3322044075466692e-04</internalNodes>
          <leafValues>
            2.8274184465408325e-01 -3.1186273694038391e-01</leafValues></_>
        <_>
          <internalNodes>
            0 -1 141 -1.0057713370770216e-04</internalNodes>
          <leafValues>
            -4.7989377379417419e-01 1.8665748834609985e-01</leafValues></_>
        <_>
          <internalNodes>
            0 -1 19 -4.8020087182521820e-02</internalNodes>
          <leafValues>
            5.5253309011459351e-01 -1.8864314258098602e-01</leafValues></_>
        <_>
          <internalNodes>
            0 -1 164 3.3714104210957885e-04</internalNodes>
          <leafValues>
            -3.3741325139999390e-01 3.1885421276092529e-01</leafValues></_>
        <_>
          <internalNodes>
            0 -1 184 -1.4312556013464928e-02</internalNodes>
          <leafValues>
            5.9341442584991455e-01 -1.6962105035781860e-01</leafValues></_></weakClassifiers></_>
    <!-- stage 12 -->
    <_>
      <maxWeakCount>14</maxWeakCount>
      <stageThreshold>-1.1452332735061646e+00</stageThreshold>
      <weakClassifiers>
        <_>
          <internalNodes>
            0 -1 167 -3.4699114039540291e-03</internalNodes>
          <leafValues>
            4.4927537441253662e-01 -4.4275581836700439e-01</leafValues></_>
        <_>
          <internalNodes>
            0 -1 122 -1.0431407019495964e-02</internalNodes>
          <leafValues>
            5.1117491722106934e-01 -1.9039545953273773e-01</leafValues></_>
        <_>
          <internalNodes>
            0 -1 125 -7.0103919133543968e-03</internalNodes>
          <leafValues>
            5.4832142591476440e-01 -1.9635568559169769e-01</leafValues></_>
        <_>
          <internalNodes>
            0 -1 157 -2.5115139782428741e-02</internalNodes>
          <leafValues>
            -8.5251975059509277e-01 1.1725296825170517e-01</leafValues></_>
        <_>
          <internalNodes>
            0 -1 40 5.1361925899982452e-02</internalNodes>
          <leafValues>
            -1.6668669879436493e-01 5.4709941148757935e-01</leafValues></_>
        <_>
          <internalNodes>
            0 -1 9 -1.9160772208124399e-03</internalNodes>
          <leafValues>
            5.1018631458282471e-01 -2.0842461287975311e-01</leafValues></_>
        <_>
          <internalNodes>
            0 -1 108 -5.1360495854169130e-04</internalNodes>
          <leafValues>
            3.3026257157325745e-01 -2.4475258588790894e-01</leafValues></_>
        <_>
          <internalNodes>
            0 -1 78 1.0551683371886611e-03</internalNodes>
          <leafValues>
            1.2942890822887421e-01 -6.5553694963455200e-01</leafValues></_>
        <_>
          <internalNodes>
            0 -1 91 4.3653508328134194e-06</internalNodes>
          <leafValues>
            -3.6829563975334167e-01 2.4039460718631744e-01</leafValues></_>
        <_>
          <internalNodes>
            0 -1 67 -1.9246721640229225e-03</internalNodes>
          <leafValues>
            -5.8375555276870728e-01 1.3899132609367371e-01</leafValues></_>
        <_>
          <internalNodes>
            0 -1 126 1.6026636585593224e-03</internalNodes>
          <leafValues>
            8.2593500614166260e-02 -9.5026159286499023e-01</leafValues></_>
        <_>
          <internalNodes>
            0 -1 11 1.9663819111883640e-03</internalNodes>
          <leafValues>
            -1.9163690507411957e-01 4.8766574263572693e-01</leafValues></_>
        <_>
          <internalNodes>
            0 -1 77 -2.6195682585239410e-04</internalNodes>
          <leafValues>
            2.8845679759979248e-01 -3.4433513879776001e-01</leafValues></_>
        <_>
          <internalNodes>
            0 -1 73 -5.5278639774769545e-04</internalNodes>
          <leafValues>
            -4.6324157714843750e-01 2.2140324115753174e-01</leafValues></_></weakClassifiers></_>
    <!-- stage 13 -->
    <_>
      <maxWeakCount>15</maxWeakCount>
      <stageThreshold>-1.1544009447097778e+00</stageThreshold>
      <weakClassifiers>
        <_>
          <internalNodes>
            0 -1 147 2.5168944150209427e-02</internalNodes>
          <leafValues>
            -4.4152498245239258e-01 3.4627830982208252e-01</leafValues></_>
        <_>
          <internalNodes>
            0 -1 39 1.7019361257553101e-01</internalNodes>
          <leafValues>
            -1.5052974224090576e-01 6.7499101161956787e-01</leafValues></_>
        <_>
          <internalNodes>
            0 -1 117 -3.0491414945572615e-03</internalNodes>
          <leafValues>
            -9.3637043237686157e-01 9.8869599401950836e-02</leafValues></_>
        <_>
          <internalNodes>
            0 -1 2 3.4779002889990807e-03</internalNodes>
          <leafValues>
            1.7463092505931854e-01 -4.7239908576011658e-01</leafValues></_>
        <_>
          <internalNodes>
            0 -1 180 -1.3786875642836094e-03</internalNodes>
          <leafValues>
            5.4414469003677368e-01 -1.6654089093208313e-01</leafValues></_>
        <_>
          <internalNodes>
            0 -1 182 2.2163152694702148e-02</internalNodes>
          <leafValues>
            -1.2672375142574310e-01 6.6846746206283569e-01</leafValues></_>
        <_>
          <internalNodes>
            0 -1 168 3.0081644654273987e-03</internalNodes>
          <leafValues>
            -1.2794011831283569e-01 5.5648231506347656e-01</leafValues></_>
        <_>
          <internalNodes>
            0 -1 51 -1.6452397685497999e-03</internalNodes>
          <leafValues>
            4.5076158642768860e-01 -1.9822566211223602e-01</leafValues></_>
        <_>
          <internalNodes>
            0 -1 45 5.5288660405494738e-06</internalNodes>
          <leafValues>
            -3.2499980926513672e-01 2.6949211955070496e-01</leafValues></_>
        <_>
          <internalNodes>
            0 -1 10 -2.9818855226039886e-02</internalNodes>
          <leafValues>
            -8.6090391874313354e-01 8.1294260919094086e-02</leafValues></_>
        <_>
          <internalNodes>
            0 -1 60 -1.5413534129038453e-04</internalNodes>
          <leafValues>
            2.2765484452247620e-01 -3.8070178031921387e-01</leafValues></_>
        <_>
          <internalNodes>
            0 -1 179 -2.7751544490456581e-02</internalNodes>
          <leafValues>
            5.4348629713058472e-01 -1.5285353362560272e-01</leafValues></_>
        <_>
          <internalNodes>
            0 -1 90 -9.6526060951873660e-04</internalNodes>
          <leafValues>
            -8.8752895593643188e-01 9.9317640066146851e-02</leafValues></_>
        <_>
          <internalNodes>
            0 -1 114 1.7489242600277066e-04</internalNodes>
          <leafValues>
            -3.2331630587577820e-01 2.3449997603893280e-01</leafValues></_>
        <_>
          <internalNodes>
            0 -1 130 -5.8458670537220314e-05</internalNodes>
          <leafValues>
            -4.1800537705421448e-01 1.9297182559967041e-01</leafValues></_></weakClassifiers></_>
    <!-- stage 14 -->
    <_>
      <maxWeakCount>16</maxWeakCount>
      <stageThreshold>-1.2166926860809326e+00</stageThreshold>
      <weakClassifiers>
        <_>
          <internalNodes>
            0 -1 144 2.3836506530642509e-02</internalNodes>
          <leafValues>
            -4.0790742635726929e-01 5.4545456171035767e-01</leafValues></_>
        <_>
          <internalNodes>
            0 -1 0 2.0087197422981262e-01</internalNodes>
          <leafValues>
            -2.7248299121856689e-01 4.5574313402175903e-01</leafValues></_>
        <_>
          <internalNodes>
            0 -1 63 2.1319111692719162e-04</internalNodes>
          <leafValues>
            1.8478830158710480e-01 -5.9058928489685059e-01</leafValues></_>
        <_>
          <internalNodes>
            0 -1 18 3.7927096127532423e-04</internalNodes>
          <leafValues>
            -2.6564851403236389e-01 2.8511831164360046e-01</leafValues></_>
        <_>
          <internalNodes>
            0 -1 176 -8.4876567125320435e-03</internalNodes>
          <leafValues>
            4.7718709707260132e-01 -1.6928663849830627e-01</leafValues></_>
        <_>
          <internalNodes>
            0 -1 37 2.3303204216063023e-03</internalNodes>
          <leafValues>
            1.2520964443683624e-01 -5.9454005956649780e-01</leafValues></_>
        <_>
          <internalNodes>
            0 -1 116 -8.7200140114873648e-04</internalNodes>
          <leafValues>
            2.4475945532321930e-01 -3.3281978964805603e-01</leafValues></_>
        <_>
          <internalNodes>
            0 -1 28 -6.2448036624118686e-04</internalNodes>
          <leafValues>
            3.0488383769989014e-01 -2.9941597580909729e-01</leafValues></_>
        <_>
          <internalNodes>
            0 -1 14 4.4294884428381920e-03</internalNodes>
          <leafValues>
            -2.0111687481403351e-01 4.9313202500343323e-01</leafValues></_>
        <_>
          <internalNodes>
            0 -1 121 -1.5608051791787148e-02</internalNodes>
          <leafValues>
            6.1573487520217896e-01 -1.3285820186138153e-01</leafValues></_>
        <_>
          <internalNodes>
            0 -1 112 -3.4748725593090057e-03</internalNodes>
          <leafValues>
            -4.0205040574073792e-01 2.0286357402801514e-01</leafValues></_>
        <_>
          <internalNodes>
            0 -1 154 -1.3904769439250231e-03</internalNodes>
          <leafValues>
            5.3534030914306641e-01 -1.5714752674102783e-01</leafValues></_>
        <_>
          <internalNodes>
            0 -1 87 7.1482034400105476e-03</internalNodes>
          <leafValues>
            -1.9059149920940399e-01 4.1820019483566284e-01</leafValues></_>
        <_>
          <internalNodes>
            0 -1 75 -9.7582046873867512e-04</internalNodes>
          <leafValues>
            -8.1133693456649780e-01 9.1112583875656128e-02</leafValues></_>
        <_>
          <internalNodes>
            0 -1 71 -1.1644381447695196e-04</internalNodes>
          <leafValues>
            1.9910112023353577e-01 -3.5741150379180908e-01</leafValues></_>
        <_>
          <internalNodes>
            0 -1 162 -8.1740051973611116e-04</internalNodes>
          <leafValues>
            5.0292688608169556e-01 -1.7194940149784088e-01</leafValues></_></weakClassifiers></_>
    <!-- stage 15 -->
    <_>
      <maxWeakCount>18</maxWeakCount>
      <stageThreshold>-1.3874894380569458e+00</stageThreshold>
      <weakClassifiers>
        <_>
          <internalNodes>
            0 -1 160 -1.5446582110598683e-03</internalNodes>
          <leafValues>
            3.0030959844589233e-01 -4.3954333662986755e-01</leafValues></_>
        <_>
          <internalNodes>
            0 -1 76 -1.2211767898406833e-04</internalNodes>
          <leafValues>
            2.0746915042400360e-01 -3.6941558122634888e-01</leafValues></_>
        <_>
          <internalNodes>
            0 -1 62 -2.0130430348217487e-03</internalNodes>
          <leafValues>
            3.9507257938385010e-01 -1.9479084014892578e-01</leafValues></_>
        <_>
          <internalNodes>
            0 -1 30 4.8018238157965243e-04</internalNodes>
          <leafValues>
            1.2355621159076691e-01 -6.1271524429321289e-01</leafValues></_>
        <_>
          <internalNodes>
            0 -1 20 2.6050291489809752e-04</internalNodes>
          <leafValues>
            -2.3710778355598450e-01 3.2915148138999939e-01</leafValues></_>
        <_>
          <internalNodes>
            0 -1 190 2.2865384817123413e-02</internalNodes>
          <leafValues>
            -1.5506589412689209e-01 6.7302471399307251e-01</leafValues></_>
        <_>
          <internalNodes>
            0 -1 120 -2.5154295144602656e-04</internalNodes>
          <leafValues>
            2.9396280646324158e-01 -2.5757738947868347e-01</leafValues></_>
        <_>
          <internalNodes>
            0 -1 57 9.0537397190928459e-03</internalNodes>
          <leafValues>
            1.4713411033153534e-01 -6.0693484544754028e-01</leafValues></_>
        <_>
          <internalNodes>
            0 -1 42 -1.2254848144948483e-02</internalNodes>
          <leafValues>
            -8.4449857473373413e-01 6.2369048595428467e-02</leafValues></_>
        <_>
          <internalNodes>
            0 -1 174 -7.6814787462353706e-03</internalNodes>
          <leafValues>
            4.7050651907920837e-01 -1.5987789630889893e-01</leafValues></_>
        <_>
          <internalNodes>
            0 -1 142 3.8364701322279871e-04</internalNodes>
          <leafValues>
            -3.1594425439834595e-01 2.4072428047657013e-01</leafValues></_>
        <_>
          <internalNodes>
            0 -1 64 -6.7510118242353201e-04</internalNodes>
          <leafValues>
            -7.9953145980834961e-01 9.5520876348018646e-02</leafValues></_>
        <_>
          <internalNodes>
            0 -1 160 1.1564625892788172e-03</internalNodes>
          <leafValues>
            -1.3712160289287567e-01 5.4772162437438965e-01</leafValues></_>
        <_>
          <internalNodes>
            0 -1 159 -1.6304111108183861e-02</internalNodes>
          <leafValues>
            3.6781400442123413e-01 -1.8997392058372498e-01</leafValues></_>
        <_>
          <internalNodes>
            0 -1 41 4.5669712126255035e-02</internalNodes>
          <leafValues>
            -1.4133000373840332e-01 6.1116814613342285e-01</leafValues></_>
        <_>
          <internalNodes>
            0 -1 192 -2.7454553637653589e-03</internalNodes>
          <leafValues>
            -6.1823272705078125e-01 1.3461351394653320e-01</leafValues></_>
        <_>
          <internalNodes>
            0 -1 8 7.3287032544612885e-02</internalNodes>
          <leafValues>
            -1.2072854489088058e-01 7.3587083816528320e-01</leafValues></_>
        <_>
          <internalNodes>
            0 -1 128 -7.3862134013324976e-04</internalNodes>
          <leafValues>
            1.9090914726257324e-01 -4.4412741065025330e-01</leafValues></_></weakClassifiers></_>
    <!-- stage 16 -->
    <_>
      <maxWeakCount>18</maxWeakCount>
      <stageThreshold>-1.3334584236145020e+00</stageThreshold>
      <weakClassifiers>
        <_>
          <internalNodes>
            0 -1 161 -2.8314162045717239e-04</internalNodes>
          <leafValues>
            4.2492918670177460e-02 -5.0518137216567993e-01</leafValues></_>
        <_>
          <internalNodes>
            0 -1 189 -2.7165422216057777e-03</internalNodes>
          <leafValues>
            -5.4963743686676025e-01 1.1811977624893188e-01</leafValues></_>
        <_>
          <internalNodes>
            0 -1 33 1.0777427814900875e-03</internalNodes>
          <leafValues>
            9.9042214453220367e-02 -6.3022178411483765e-01</leafValues></_>
        <_>
          <internalNodes>
            0 -1 36 -4.4945732224732637e-04</internalNodes>
          <leafValues>
            -2.9098930954933167e-01 3.1998568773269653e-01</leafValues></_>
        <_>
          <internalNodes>
            0 -1 47 -2.1818052046000957e-03</internalNodes>
          <leafValues>
            3.3975136280059814e-01 -2.4676552414894104e-01</leafValues></_>
        <_>
          <internalNodes>
            0 -1 48 1.1806650582002476e-04</internalNodes>
          <leafValues>
            1.3890741765499115e-01 -5.8217263221740723e-01</leafValues></_>
        <_>
          <internalNodes>
            0 -1 27 8.5556786507368088e-03</internalNodes>
          <leafValues>
            -1.8175671994686127e-01 4.7284409403800964e-01</leafValues></_>
        <_>
          <internalNodes>
            0 -1 132 -1.7316803336143494e-02</internalNodes>
          <leafValues>
            -7.4152892827987671e-01 1.0550293326377869e-01</leafValues></_>
        <_>
          <internalNodes>
            0 -1 43 -1.1875403579324484e-03</internalNodes>
          <leafValues>
            2.9639348387718201e-01 -2.8012260794639587e-01</leafValues></_>
        <_>
          <internalNodes>
            0 -1 119 4.3729497119784355e-03</internalNodes>
          <leafValues>
            8.4183655679225922e-02 -7.6031827926635742e-01</leafValues></_>
        <_>
          <internalNodes>
            0 -1 31 -1.9334409385919571e-02</internalNodes>
          <leafValues>
            6.9478619098663330e-01 -1.2031009048223495e-01</leafValues></_>
        <_>
          <internalNodes>
            0 -1 177 1.4589846134185791e-02</internalNodes>
          <leafValues>
            1.4112533628940582e-01 -5.2820628881454468e-01</leafValues></_>
        <_>
          <internalNodes>
            0 -1 146 1.9179061055183411e-02</internalNodes>
          <leafValues>
            -1.8389137089252472e-01 4.1750741004943848e-01</leafValues></_>
        <_>
          <internalNodes>
            0 -1 72 -6.9435988552868366e-04</internalNodes>
          <leafValues>
            -7.3819804191589355e-01 1.0929424315690994e-01</leafValues></_>
        <_>
          <internalNodes>
            0 -1 148 2.1046677138656378e-03</internalNodes>
          <leafValues>
            -2.3061031103134155e-01 3.2925567030906677e-01</leafValues></_>
        <_>
          <internalNodes>
            0 -1 151 -7.8269559890031815e-03</internalNodes>
          <leafValues>
            5.7483583688735962e-01 -1.7525634169578552e-01</leafValues></_>
        <_>
          <internalNodes>
            0 -1 84 -9.2162238433957100e-04</internalNodes>
          <leafValues>
            2.3030667006969452e-01 -3.1219366192817688e-01</leafValues></_>
        <_>
          <internalNodes>
            0 -1 81 -2.6364210061728954e-03</internalNodes>
          <leafValues>
            4.9354630708694458e-01 -1.4505711197853088e-01</leafValues></_></weakClassifiers></_></stages>
  <features>
    <_>
      <rects>
        <_>
          0 3 30 20 -1.</_>
        <_>
          10 3 10 20 3.</_></rects>
      <tilted>0</tilted></_>
    <_>
      <rects>
        <_>
          0 8 27 10 -1.</_>
        <_>
          9 8 9 10 3.</_></rects>
      <tilted>0</tilted></_>
    <_>
      <rects>
        <_>
          0 10 6 6 -1.</_>
        <_>
          3 10 3 6 2.</_></rects>
      <tilted>0</tilted></_>
    <_>
      <rects>
        <_>
          0 14 8 19 -1.</_>
        <_>
          4 14 4 19 2.</_></rects>
      <tilted>0</tilted></_>
    <_>
      <rects>
        <_>
          0 15 10 21 -1.</_>
        <_>
          5 15 5 21 2.</_></rects>
      <tilted>0</tilted></_>
    <_>
      <rects>
        <_>
          0 17 8 21 -1.</_>
        <_>
          4 17 4 21 2.</_></rects>
      <tilted>0</tilted></_>
    <_>
      <rects>
        <_>
          0 17 18 18 -1.</_>
        <_>
          6 17 6 18 3.</_></rects>
      <tilted>0</tilted></_>
    <_>
      <rects>
        <_>
          1 13 8 21 -1.</_>
        <_>
          5 13 4 21 2.</_></rects>
      <tilted>0</tilted></_>
    <_>
      <rects>
        <_>
          1 18 26 10 -1.</_>
        <_>
          1 18 13 5 2.</_>
        <_>
          14 23 13 5 2.</_></rects>
      <tilted>0</tilted></_>
    <_>
      <rects>
        <_>
          1 26 4 3 -1.</_>
        <_>
          3 26 2 3 2.</_></rects>
      <tilted>0</tilted></_>
    <_>
      <rects>
        <_>
          2 15 9 15 -1.</_>
        <_>
          2 20 9 5 3.</_></rects>
      <tilted>0</tilted></_>
    <_>
      <rects>
        <_>
          2 26 2 7 -1.</_>
        <_>
          3 26 1 7 2.</_></rects>
      <tilted>0</tilted></_>
    <_>
      <rects>
        <_>
          3 10 21 3 -1.</_>
        <_>
          10 10 7 3 3.</_></rects>
      <tilted>0</tilted></_>
    <_>
      <rects>
        <_>
          4 9 10 24 -1.</_>
        <_>
          4 9 5 12 2.</_>
        <_>
          9 21 5 12 2.</_></rects>
      <tilted>0</tilted></_>
    <_>
      <rects>
        <_>
          4 14 6 8 -1.</_>
        <_>
          4 14 3 4 2.</_>
        <_>
          7 18 3 4 2.</_></rects>
      <tilted>0</tilted></_>
    <_>
      <rects>
        <_>
          4 16 4 10 -1.</_>
        <_>
          4 16 2 5 2.</_>
        <_>
          6 21 2 5 2.</_></rects>
      <tilted>0</tilted></_>
    <_>
      <rects>
        <_>
          4 20 4 3 -1.</_>
        <_>
          6 20 2 3 2.</_></rects>
      <tilted>0</tilted></_>
    <_>
      <rects>
        <_>
          4 21 2 6 -1.</_>
        <_>
          4 21 1 3 2.</_>
        <_>
          5 24 1 3 2.</_></rects>
      <tilted>0</tilted></_>
    <_>
      <rects>
        <_>
          4 21 4 4 -1.</_>
        <_>
          4 21 2 2 2.</_>
        <_>
          6 23 2 2 2.</_></rects>
      <tilted>0</tilted></_>
    <_>
      <rects>
        <_>
          4 23 24 7 -1.</_>
        <_>
          16 23 12 7 2.</_></rects>
      <tilted>0</tilted></_>
    <_>
      <rects>
        <_>
          4 24 4 6 -1.</_>
        <_>
          4 27 4 3 2.</_></rects>
      <tilted>0</tilted></_>
    <_>
      <rects>
        <_>
          4 27 3 3 -1.</_>
        <_>
          4 28 3 1 3.</_></rects>
      <tilted>0</tilted></_>
    <_>
      <rects>
        <_>
          4 27 4 2 -1.</_>
        <_>
          4 28 4 1 2.</_></rects>
      <tilted>0</tilted></_>
    <_>
      <rects>
        <_>
          5 3 10 30 -1.</_>
        <_>
          5 3 5 15 2.</_>
        <_>
          10 18 5 15 2.</_></rects>
      <tilted>0</tilted></_>
    <_>
      <rects>
        <_>
          5 8 10 26 -1.</_>
        <_>
          5 8 5 13 2.</_>
        <_>
          10 21 5 13 2.</_></rects>
      <tilted>0</tilted></_>
    <_>
      <rects>
        <_>
          5 10 24 2 -1.</_>
        <_>
          13 10 8 2 3.</_></rects>
      <tilted>0</tilted></_>
    <_>
      <rects>
        <_>
          5 14 4 12 -1.</_>
        <_>
          5 14 2 6 2.</_>
        <_>
          7 20 2 6 2.</_></rects>
      <tilted>0</tilted></_>
    <_>
      <rects>
        <_>
          5 15 9 3 -1.</_>
        <_>
          8 15 3 3 3.</_></rects>
      <tilted>0</tilted></_>
    <_>
      <rects>
        <_>
          5 19 4 2 -1.</_>
        <_>
          7 19 2 2 2.</_></rects>
      <tilted>0</tilted></_>
    <_>
      <rects>
        <_>
          5 20 4 4 -1.</_>
        <_>
          5 20 2 2 2.</_>
        <_>
          7 22 2 2 2.</_></rects>
      <tilted>0</tilted></_>
    <_>
      <rects>
        <_>
          5 25 1 4 -1.</_>
        <_>
          5 27 1 2 2.</_></rects>
      <tilted>0</tilted></_>
    <_>
      <rects>
        <_>
          6 18 24 4 -1.</_>
        <_>
          6 20 24 2 2.</_></rects>
      <tilted>0</tilted></_>
    <_>
      <rects>
        <_>
          6 21 10 2 -1.</_>
        <_>
          6 21 5 1 2.</_>
        <_>
          11 22 5 1 2.</_></rects>
      <tilted>0</tilted></_>
    <_>
      <rects>
        <_>
          6 24 6 3 -1.</_>
        <_>
          9 24 3 3 2.</_></rects>
      <tilted>0</tilted></_>
    <_>
      <rects>
        <_>
          7 0 4 30 -1.</_>
        <_>
          7 15 4 15 2.</_></rects>
      <tilted>0</tilted></_>
    <_>
      <rects>
        <_>
          7 16 4 3 -1.</_>
        <_>
          9 16 2 3 2.</_></rects>
      <tilted>0</tilted></_>
    <_>
      <rects>
        <_>
          7 22 4 4 -1.</_>
        <_>
          9 22 2 4 2.</_></rects>
      <tilted>0</tilted></_>
    <_>
      <rects>
        <_>
          7 22 4 10 -1.</_>
        <_>
          7 22 2 5 2.</_>
        <_>
          9 27 2 5 2.</_></rects>
      <tilted>0</tilted></_>
    <_>
      <rects>
        <_>
          7 30 2 1 -1.</_>
        <_>
          8 30 1 1 2.</_></rects>
      <tilted>0</tilted></_>
    <_>
      <rects>
        <_>
          8 2 12 36 -1.</_>
        <_>
          8 14 12 12 3.</_></rects>
      <tilted>0</tilted></_>
    <_>
      <rects>
        <_>
          8 5 15 20 -1.</_>
        <_>
          13 5 5 20 3.</_></rects>
      <tilted>0</tilted></_>
    <_>
      <rects>
        <_>
          8 5 24 3 -1.</_>
        <_>
          16 5 8 3 3.</_></rects>
      <tilted>0</tilted></_>
    <_>
      <rects>
        <_>
          8 10 7 9 -1.</_>
        <_>
          8 13 7 3 3.</_></rects>
      <tilted>0</tilted></_>
    <_>
      <rects>
        <_>
          8 11 1 12 -1.</_>
        <_>
          8 15 1 4 3.</_></rects>
      <tilted>0</tilted></_>
    <_>
      <rects>
        <_>
          8 13 1 9 -1.</_>
        <_>
          8 16 1 3 3.</_></rects>
      <tilted>0</tilted></_>
    <_>
      <rects>
        <_>
          8 16 2 4 -1.</_>
        <_>
          8 16 1 2 2.</_>
        <_>
          9 18 1 2 2.</_></rects>
      <tilted>0</tilted></_>
    <_>
      <rects>
        <_>
          8 17 8 6 -1.</_>
        <_>
          8 19 8 2 3.</_></rects>
      <tilted>0</tilted></_>
    <_>
      <rects>
        <_>
          8 21 6 5 -1.</_>
        <_>
          10 21 2 5 3.</_></rects>
      <tilted>0</tilted></_>
    <_>
      <rects>
        <_>
          8 22 3 1 -1.</_>
        <_>
          9 22 1 1 3.</_></rects>
      <tilted>0</tilted></_>
    <_>
      <rects>
        <_>
          8 22 3 3 -1.</_>
        <_>
          9 22 1 3 3.</_></rects>
      <tilted>0</tilted></_>
    <_>
      <rects>
        <_>
          8 25 3 2 -1.</_>
        <_>
          9 25 1 2 3.</_></rects>
      <tilted>0</tilted></_>
    <_>
      <rects>
        <_>
          8 29 6 1 -1.</_>
        <_>
          11 29 3 1 2.</_></rects>
      <tilted>0</tilted></_>
    <_>
      <rects>
        <_>
          9 2 10 14 -1.</_>
        <_>
          9 2 5 7 2.</_>
        <_>
          14 9 5 7 2.</_></rects>
      <tilted>0</tilted></_>
    <_>
      <rects>
        <_>
          9 3 16 14 -1.</_>
        <_>
          9 3 8 7 2.</_>
        <_>
          17 10 8 7 2.</_></rects>
      <tilted>0</tilted></_>
    <_>
      <rects>
        <_>
          9 4 10 12 -1.</_>
        <_>
          9 4 5 6 2.</_>
        <_>
          14 10 5 6 2.</_></rects>
      <tilted>0</tilted></_>
    <_>
      <rects>
        <_>
          9 7 10 24 -1.</_>
        <_>
          9 7 5 12 2.</_>
        <_>
          14 19 5 12 2.</_></rects>
      <tilted>0</tilted></_>
    <_>
      <rects>
        <_>
          9 8 6 25 -1.</_>
        <_>
          12 8 3 25 2.</_></rects>
      <tilted>0</tilted></_>
    <_>
      <rects>
        <_>
          9 9 8 9 -1.</_>
        <_>
          9 12 8 3 3.</_></rects>
      <tilted>0</tilted></_>
    <_>
      <rects>
        <_>
          9 16 1 2 -1.</_>
        <_>
          9 17 1 1 2.</_></rects>
      <tilted>0</tilted></_>
    <_>
      <rects>
        <_>
          9 16 4 3 -1.</_>
        <_>
          9 17 4 1 3.</_></rects>
      <tilted>0</tilted></_>
    <_>
      <rects>
        <_>
          9 17 2 4 -1.</_>
        <_>
          9 19 2 2 2.</_></rects>
      <tilted>0</tilted></_>
    <_>
      <rects>
        <_>
          9 18 3 4 -1.</_>
        <_>
          9 20 3 2 2.</_></rects>
      <tilted>0</tilted></_>
    <_>
      <rects>
        <_>
          9 18 20 2 -1.</_>
        <_>
          9 18 10 1 2.</_>
        <_>
          19 19 10 1 2.</_></rects>
      <tilted>0</tilted></_>
    <_>
      <rects>
        <_>
          9 19 3 1 -1.</_>
        <_>
          10 19 1 1 3.</_></rects>
      <tilted>0</tilted></_>
    <_>
      <rects>
        <_>
          9 19 3 2 -1.</_>
        <_>
          10 19 1 2 3.</_></rects>
      <tilted>0</tilted></_>
    <_>
      <rects>
        <_>
          9 27 6 2 -1.</_>
        <_>
          11 27 2 2 3.</_></rects>
      <tilted>0</tilted></_>
    <_>
      <rects>
        <_>
          10 1 6 36 -1.</_>
        <_>
          10 13 6 12 3.</_></rects>
      <tilted>0</tilted></_>
    <_>
      <rects>
        <_>
          10 5 6 19 -1.</_>
        <_>
          12 5 2 19 3.</_></rects>
      <tilted>0</tilted></_>
    <_>
      <rects>
        <_>
          10 5 8 14 -1.</_>
        <_>
          10 5 4 7 2.</_>
        <_>
          14 12 4 7 2.</_></rects>
      <tilted>0</tilted></_>
    <_>
      <rects>
        <_>
          10 9 8 18 -1.</_>
        <_>
          10 9 4 9 2.</_>
        <_>
          14 18 4 9 2.</_></rects>
      <tilted>0</tilted></_>
    <_>
      <rects>
        <_>
          10 12 2 8 -1.</_>
        <_>
          10 16 2 4 2.</_></rects>
      <tilted>0</tilted></_>
    <_>
      <rects>
        <_>
          10 13 2 12 -1.</_>
        <_>
          10 17 2 4 3.</_></rects>
      <tilted>0</tilted></_>
    <_>
      <rects>
        <_>
          10 15 3 3 -1.</_>
        <_>
          10 16 3 1 3.</_></rects>
      <tilted>0</tilted></_>
    <_>
      <rects>
        <_>
          10 16 2 8 -1.</_>
        <_>
          11 16 1 8 2.</_></rects>
      <tilted>0</tilted></_>
    <_>
      <rects>
        <_>
          10 16 2 4 -1.</_>
        <_>
          10 18 2 2 2.</_></rects>
      <tilted>0</tilted></_>
    <_>
      <rects>
        <_>
          10 17 5 3 -1.</_>
        <_>
          10 18 5 1 3.</_></rects>
      <tilted>0</tilted></_>
    <_>
      <rects>
        <_>
          10 19 4 1 -1.</_>
        <_>
          12 19 2 1 2.</_></rects>
      <tilted>0</tilted></_>
    <_>
      <rects>
        <_>
          10 19 6 2 -1.</_>
        <_>
          12 19 2 2 3.</_></rects>
      <tilted>0</tilted></_>
    <_>
      <rects>
        <_>
          10 20 9 1 -1.</_>
        <_>
          13 20 3 1 3.</_></rects>
      <tilted>0</tilted></_>
    <_>
      <rects>
        <_>
          10 23 2 3 -1.</_>
        <_>
          11 23 1 3 2.</_></rects>
      <tilted>0</tilted></_>
    <_>
      <rects>
        <_>
          10 24 3 10 -1.</_>
        <_>
          11 24 1 10 3.</_></rects>
      <tilted>0</tilted></_>
    <_>
      <rects>
        <_>
          10 29 4 3 -1.</_>
        <_>
          12 29 2 3 2.</_></rects>
      <tilted>0</tilted></_>
    <_>
      <rects>
        <_>
          11 2 16 6 -1.</_>
        <_>
          11 2 8 3 2.</_>
        <_>
          19 5 8 3 2.</_></rects>
      <tilted>0</tilted></_>
    <_>
      <rects>
        <_>
          11 11 2 3 -1.</_>
        <_>
          12 11 1 3 2.</_></rects>
      <tilted>0</tilted></_>
    <_>
      <rects>
        <_>
          11 11 1 8 -1.</_>
        <_>
          11 15 1 4 2.</_></rects>
      <tilted>0</tilted></_>
    <_>
      <rects>
        <_>
          11 12 1 16 -1.</_>
        <_>
          11 20 1 8 2.</_></rects>
      <tilted>0</tilted></_>
    <_>
      <rects>
        <_>
          11 15 1 6 -1.</_>
        <_>
          11 17 1 2 3.</_></rects>
      <tilted>0</tilted></_>
    <_>
      <rects>
        <_>
          11 15 8 6 -1.</_>
        <_>
          11 15 4 3 2.</_>
        <_>
          15 18 4 3 2.</_></rects>
      <tilted>0</tilted></_>
    <_>
      <rects>
        <_>
          11 16 4 2 -1.</_>
        <_>
          11 16 2 1 2.</_>
        <_>
          13 17 2 1 2.</_></rects>
      <tilted>0</tilted></_>
    <_>
      <rects>
        <_>
          11 17 2 2 -1.</_>
        <_>
          11 17 1 1 2.</_>
        <_>
          12 18 1 1 2.</_></rects>
      <tilted>0</tilted></_>
    <_>
      <rects>
        <_>
          11 17 1 6 -1.</_>
        <_>
          11 19 1 2 3.</_></rects>
      <tilted>0</tilted></_>
    <_>
      <rects>
        <_>
          11 17 2 4 -1.</_>
        <_>
          11 17 1 2 2.</_>
        <_>
          12 19 1 2 2.</_></rects>
      <tilted>0</tilted></_>
    <_>
      <rects>
        <_>
          11 17 14 4 -1.</_>
        <_>
          11 17 7 2 2.</_>
        <_>
          18 19 7 2 2.</_></rects>
      <tilted>0</tilted></_>
    <_>
      <rects>
        <_>
          11 19 10 12 -1.</_>
        <_>
          11 25 10 6 2.</_></rects>
      <tilted>0</tilted></_>
    <_>
      <rects>
        <_>
          11 20 2 1 -1.</_>
        <_>
          12 20 1 1 2.</_></rects>
      <tilted>0</tilted></_>
    <_>
      <rects>
        <_>
          11 21 1 4 -1.</_>
        <_>
          11 23 1 2 2.</_></rects>
      <tilted>0</tilted></_>
    <_>
      <rects>
        <_>
          12 8 6 8 -1.</_>
        <_>
          12 8 3 4 2.</_>
        <_>
          15 12 3 4 2.</_></rects>
      <tilted>0</tilted></_>
    <_>
      <rects>
        <_>
          12 10 4 6 -1.</_>
        <_>
          12 10 2 3 2.</_>
        <_>
          14 13 2 3 2.</_></rects>
      <tilted>0</tilted></_>
    <_>
      <rects>
        <_>
          12 11 8 2 -1.</_>
        <_>
          16 11 4 2 2.</_></rects>
      <tilted>0</tilted></_>
    <_>
      <rects>
        <_>
          12 13 7 3 -1.</_>
        <_>
          12 14 7 1 3.</_></rects>
      <tilted>0</tilted></_>
    <_>
      <rects>
        <_>
          12 15 1 4 -1.</_>
        <_>
          12 17 1 2 2.</_></rects>
      <tilted>0</tilted></_>
    <_>
      <rects>
        <_>
          12 16 2 6 -1.</_>
        <_>
          13 16 1 6 2.</_></rects>
      <tilted>0</tilted></_>
    <_>
      <rects>
        <_>
          12 18 2 2 -1.</_>
        <_>
          13 18 1 2 2.</_></rects>
      <tilted>0</tilted></_>
    <_>
      <rects>
        <_>
          13 3 16 2 -1.</_>
        <_>
          13 3 8 1 2.</_>
        <_>
          21 4 8 1 2.</_></rects>
      <tilted>0</tilted></_>
    <_>
      <rects>
        <_>
          13 4 1 14 -1.</_>
        <_>
          13 11 1 7 2.</_></rects>
      <tilted>0</tilted></_>
    <_>
      <rects>
        <_>
          13 5 12 8 -1.</_>
        <_>
          13 5 6 4 2.</_>
        <_>
          19 9 6 4 2.</_></rects>
      <tilted>0</tilted></_>
    <_>
      <rects>
        <_>
          13 6 3 12 -1.</_>
        <_>
          13 10 3 4 3.</_></rects>
      <tilted>0</tilted></_>
    <_>
      <rects>
        <_>
          13 6 8 8 -1.</_>
        <_>
          13 6 4 4 2.</_>
        <_>
          17 10 4 4 2.</_></rects>
      <tilted>0</tilted></_>
    <_>
      <rects>
        <_>
          13 7 1 9 -1.</_>
        <_>
          13 10 1 3 3.</_></rects>
      <tilted>0</tilted></_>
    <_>
      <rects>
        <_>
          13 10 3 6 -1.</_>
        <_>
          13 13 3 3 2.</_></rects>
      <tilted>0</tilted></_>
    <_>
      <rects>
        <_>
          13 11 2 6 -1.</_>
        <_>
          14 11 1 6 2.</_></rects>
      <tilted>0</tilted></_>
    <_>
      <rects>
        <_>
          13 11 3 4 -1.</_>
        <_>
          13 13 3 2 2.</_></rects>
      <tilted>0</tilted></_>
    <_>
      <rects>
        <_>
          13 12 3 10 -1.</_>
        <_>
          13 17 3 5 2.</_></rects>
      <tilted>0</tilted></_>
    <_>
      <rects>
        <_>
          13 13 2 11 -1.</_>
        <_>
          14 13 1 11 2.</_></rects>
      <tilted>0</tilted></_>
    <_>
      <rects>
        <_>
          13 13 6 3 -1.</_>
        <_>
          13 14 6 1 3.</_></rects>
      <tilted>0</tilted></_>
    <_>
      <rects>
        <_>
          13 14 1 6 -1.</_>
        <_>
          13 16 1 2 3.</_></rects>
      <tilted>0</tilted></_>
    <_>
      <rects>
        <_>
          13 14 2 8 -1.</_>
        <_>
          14 14 1 8 2.</_></rects>
      <tilted>0</tilted></_>
    <_>
      <rects>
        <_>
          13 15 2 9 -1.</_>
        <_>
          14 15 1 9 2.</_></rects>
      <tilted>0</tilted></_>
    <_>
      <rects>
        <_>
          13 16 3 2 -1.</_>
        <_>
          14 16 1 2 3.</_></rects>
      <tilted>0</tilted></_>
    <_>
      <rects>
        <_>
          13 16 4 6 -1.</_>
        <_>
          15 16 2 6 2.</_></rects>
      <tilted>0</tilted></_>
    <_>
      <rects>
        <_>
          13 20 2 5 -1.</_>
        <_>
          14 20 1 5 2.</_></rects>
      <tilted>0</tilted></_>
    <_>
      <rects>
        <_>
          14 2 14 4 -1.</_>
        <_>
          14 2 7 2 2.</_>
        <_>
          21 4 7 2 2.</_></rects>
      <tilted>0</tilted></_>
    <_>
      <rects>
        <_>
          14 4 3 12 -1.</_>
        <_>
          14 8 3 4 3.</_></rects>
      <tilted>0</tilted></_>
    <_>
      <rects>
        <_>
          14 6 1 4 -1.</_>
        <_>
          14 8 1 2 2.</_></rects>
      <tilted>0</tilted></_>
    <_>
      <rects>
        <_>
          14 7 1 4 -1.</_>
        <_>
          14 9 1 2 2.</_></rects>
      <tilted>0</tilted></_>
    <_>
      <rects>
        <_>
          14 7 6 6 -1.</_>
        <_>
          14 7 3 3 2.</_>
        <_>
          17 10 3 3 2.</_></rects>
      <tilted>0</tilted></_>
    <_>
      <rects>
        <_>
          14 9 1 10 -1.</_>
        <_>
          14 14 1 5 2.</_></rects>
      <tilted>0</tilted></_>
    <_>
      <rects>
        <_>
          14 11 2 4 -1.</_>
        <_>
          15 11 1 4 2.</_></rects>
      <tilted>0</tilted></_>
    <_>
      <rects>
        <_>
          14 11 4 2 -1.</_>
        <_>
          16 11 2 2 2.</_></rects>
      <tilted>0</tilted></_>
    <_>
      <rects>
        <_>
          14 15 2 6 -1.</_>
        <_>
          14 15 1 3 2.</_>
        <_>
          15 18 1 3 2.</_></rects>
      <tilted>0</tilted></_>
    <_>
      <rects>
        <_>
          14 21 3 1 -1.</_>
        <_>
          15 21 1 1 3.</_></rects>
      <tilted>0</tilted></_>
    <_>
      <rects>
        <_>
          15 0 6 2 -1.</_>
        <_>
          18 0 3 2 2.</_></rects>
      <tilted>0</tilted></_>
    <_>
      <rects>
        <_>
          15 1 9 9 -1.</_>
        <_>
          18 1 3 9 3.</_></rects>
      <tilted>0</tilted></_>
    <_>
      <rects>
        <_>
          15 4 14 8 -1.</_>
        <_>
          15 4 7 4 2.</_>
        <_>
          22 8 7 4 2.</_></rects>
      <tilted>0</tilted></_>
    <_>
      <rects>
        <_>
          15 5 6 10 -1.</_>
        <_>
          15 5 3 5 2.</_>
        <_>
          18 10 3 5 2.</_></rects>
      <tilted>0</tilted></_>
    <_>
      <rects>
        <_>
          15 9 1 6 -1.</_>
        <_>
          15 12 1 3 2.</_></rects>
      <tilted>0</tilted></_>
    <_>
      <rects>
        <_>
          15 9 4 4 -1.</_>
        <_>
          17 9 2 4 2.</_></rects>
      <tilted>0</tilted></_>
    <_>
      <rects>
        <_>
          15 10 3 2 -1.</_>
        <_>
          16 10 1 2 3.</_></rects>
      <tilted>0</tilted></_>
    <_>
      <rects>
        <_>
          15 11 2 3 -1.</_>
        <_>
          16 11 1 3 2.</_></rects>
      <tilted>0</tilted></_>
    <_>
      <rects>
        <_>
          15 14 2 8 -1.</_>
        <_>
          16 14 1 8 2.</_></rects>
      <tilted>0</tilted></_>
    <_>
      <rects>
        <_>
          15 14 14 8 -1.</_>
        <_>
          15 18 14 4 2.</_></rects>
      <tilted>0</tilted></_>
    <_>
      <rects>
        <_>
          15 15 1 2 -1.</_>
        <_>
          15 16 1 1 2.</_></rects>
      <tilted>0</tilted></_>
    <_>
      <rects>
        <_>
          15 15 2 6 -1.</_>
        <_>
          16 15 1 6 2.</_></rects>
      <tilted>0</tilted></_>
    <_>
      <rects>
        <_>
          15 16 6 16 -1.</_>
        <_>
          15 24 6 8 2.</_></rects>
      <tilted>0</tilted></_>
    <_>
      <rects>
        <_>
          15 17 2 16 -1.</_>
        <_>
          15 25 2 8 2.</_></rects>
      <tilted>0</tilted></_>
    <_>
      <rects>
        <_>
          15 18 6 10 -1.</_>
        <_>
          15 23 6 5 2.</_></rects>
      <tilted>0</tilted></_>
    <_>
      <rects>
        <_>
          16 0 2 18 -1.</_>
        <_>
          16 6 2 6 3.</_></rects>
      <tilted>0</tilted></_>
    <_>
      <rects>
        <_>
          16 2 12 8 -1.</_>
        <_>
          16 2 6 4 2.</_>
        <_>
          22 6 6 4 2.</_></rects>
      <tilted>0</tilted></_>
    <_>
      <rects>
        <_>
          16 10 6 7 -1.</_>
        <_>
          18 10 2 7 3.</_></rects>
      <tilted>0</tilted></_>
    <_>
      <rects>
        <_>
          16 11 2 2 -1.</_>
        <_>
          17 11 1 2 2.</_></rects>
      <tilted>0</tilted></_>
    <_>
      <rects>
        <_>
          16 11 10 6 -1.</_>
        <_>
          16 13 10 2 3.</_></rects>
      <tilted>0</tilted></_>
    <_>
      <rects>
        <_>
          16 12 6 8 -1.</_>
        <_>
          18 12 2 8 3.</_></rects>
      <tilted>0</tilted></_>
    <_>
      <rects>
        <_>
          16 13 6 4 -1.</_>
        <_>
          18 13 2 4 3.</_></rects>
      <tilted>0</tilted></_>
    <_>
      <rects>
        <_>
          16 13 2 15 -1.</_>
        <_>
          16 18 2 5 3.</_></rects>
      <tilted>0</tilted></_>
    <_>
      <rects>
        <_>
          16 14 1 8 -1.</_>
        <_>
          16 18 1 4 2.</_></rects>
      <tilted>0</tilted></_>
    <_>
      <rects>
        <_>
          16 14 3 6 -1.</_>
        <_>
          16 16 3 2 3.</_></rects>
      <tilted>0</tilted></_>
    <_>
      <rects>
        <_>
          16 20 2 2 -1.</_>
        <_>
          17 20 1 2 2.</_></rects>
      <tilted>0</tilted></_>
    <_>
      <rects>
        <_>
          17 0 8 10 -1.</_>
        <_>
          21 0 4 10 2.</_></rects>
      <tilted>0</tilted></_>
    <_>
      <rects>
        <_>
          17 0 14 22 -1.</_>
        <_>
          17 0 7 11 2.</_>
        <_>
          24 11 7 11 2.</_></rects>
      <tilted>0</tilted></_>
    <_>
      <rects>
        <_>
          17 1 14 9 -1.</_>
        <_>
          17 4 14 3 3.</_></rects>
      <tilted>0</tilted></_>
    <_>
      <rects>
        <_>
          17 3 4 2 -1.</_>
        <_>
          17 3 2 1 2.</_>
        <_>
          19 4 2 1 2.</_></rects>
      <tilted>0</tilted></_>
    <_>
      <rects>
        <_>
          17 6 1 3 -1.</_>
        <_>
          17 7 1 1 3.</_></rects>
      <tilted>0</tilted></_>
    <_>
      <rects>
        <_>
          17 8 4 2 -1.</_>
        <_>
          17 8 2 1 2.</_>
        <_>
          19 9 2 1 2.</_></rects>
      <tilted>0</tilted></_>
    <_>
      <rects>
        <_>
          17 11 3 8 -1.</_>
        <_>
          18 11 1 8 3.</_></rects>
      <tilted>0</tilted></_>
    <_>
      <rects>
        <_>
          18 14 2 8 -1.</_>
        <_>
          19 14 1 8 2.</_></rects>
      <tilted>0</tilted></_>
    <_>
      <rects>
        <_>
          19 1 7 9 -1.</_>
        <_>
          19 4 7 3 3.</_></rects>
      <tilted>0</tilted></_>
    <_>
      <rects>
        <_>
          19 1 12 6 -1.</_>
        <_>
          19 3 12 2 3.</_></rects>
      <tilted>0</tilted></_>
    <_>
      <rects>
        <_>
          19 19 11 2 -1.</_>
        <_>
          19 20 11 1 2.</_></rects>
      <tilted>0</tilted></_>
    <_>
      <rects>
        <_>
          19 20 3 4 -1.</_>
        <_>
          19 22 3 2 2.</_></rects>
      <tilted>0</tilted></_>
    <_>
      <rects>
        <_>
          20 0 9 10 -1.</_>
        <_>
          23 0 3 10 3.</_></rects>
      <tilted>0</tilted></_>
    <_>
      <rects>
        <_>
          20 0 11 6 -1.</_>
        <_>
          20 2 11 2 3.</_></rects>
      <tilted>0</tilted></_>
    <_>
      <rects>
        <_>
          20 1 4 9 -1.</_>
        <_>
          20 4 4 3 3.</_></rects>
      <tilted>0</tilted></_>
    <_>
      <rects>
        <_>
          20 2 10 9 -1.</_>
        <_>
          20 5 10 3 3.</_></rects>
      <tilted>0</tilted></_>
    <_>
      <rects>
        <_>
          20 3 3 6 -1.</_>
        <_>
          20 5 3 2 3.</_></rects>
      <tilted>0</tilted></_>
    <_>
      <rects>
        <_>
          20 5 5 6 -1.</_>
        <_>
          20 7 5 2 3.</_></rects>
      <tilted>0</tilted></_>
    <_>
      <rects>
        <_>
          21 0 5 9 -1.</_>
        <_>
          21 3 5 3 3.</_></rects>
      <tilted>0</tilted></_>
    <_>
      <rects>
        <_>
          21 0 8 6 -1.</_>
        <_>
          21 2 8 2 3.</_></rects>
      <tilted>0</tilted></_>
    <_>
      <rects>
        <_>
          21 1 6 26 -1.</_>
        <_>
          21 1 3 13 2.</_>
        <_>
          24 14 3 13 2.</_></rects>
      <tilted>0</tilted></_>
    <_>
      <rects>
        <_>
          21 1 8 9 -1.</_>
        <_>
          21 4 8 3 3.</_></rects>
      <tilted>0</tilted></_>
    <_>
      <rects>
        <_>
          21 5 5 15 -1.</_>
        <_>
          21 10 5 5 3.</_></rects>
      <tilted>0</tilted></_>
    <_>
      <rects>
        <_>
          21 8 6 2 -1.</_>
        <_>
          21 8 3 1 2.</_>
        <_>
          24 9 3 1 2.</_></rects>
      <tilted>0</tilted></_>
    <_>
      <rects>
        <_>
          22 0 10 22 -1.</_>
        <_>
          22 0 5 11 2.</_>
        <_>
          27 11 5 11 2.</_></rects>
      <tilted>0</tilted></_>
    <_>
      <rects>
        <_>
          22 1 10 6 -1.</_>
        <_>
          22 3 10 2 3.</_></rects>
      <tilted>0</tilted></_>
    <_>
      <rects>
        <_>
          22 5 4 2 -1.</_>
        <_>
          22 6 4 1 2.</_></rects>
      <tilted>0</tilted></_>
    <_>
      <rects>
        <_>
          22 14 8 9 -1.</_>
        <_>
          22 17 8 3 3.</_></rects>
      <tilted>0</tilted></_>
    <_>
      <rects>
        <_>
          22 18 6 2 -1.</_>
        <_>
          22 19 6 1 2.</_></rects>
      <tilted>0</tilted></_>
    <_>
      <rects>
        <_>
          23 1 4 6 -1.</_>
        <_>
          23 3 4 2 3.</_></rects>
      <tilted>0</tilted></_>
    <_>
      <rects>
        <_>
          23 3 6 6 -1.</_>
        <_>
          23 5 6 2 3.</_></rects>
      <tilted>0</tilted></_>
    <_>
      <rects>
        <_>
          23 3 7 3 -1.</_>
        <_>
          23 4 7 1 3.</_></rects>
      <tilted>0</tilted></_>
    <_>
      <rects>
        <_>
          23 13 6 10 -1.</_>
        <_>
          26 13 3 10 2.</_></rects>
      <tilted>0</tilted></_>
    <_>
      <rects>
        <_>
          23 17 7 9 -1.</_>
        <_>
          23 20 7 3 3.</_></rects>
      <tilted>0</tilted></_>
    <_>
      <rects>
        <_>
          25 2 2 6 -1.</_>
        <_>
          25 4 2 2 3.</_></rects>
      <tilted>0</tilted></_>
    <_>
      <rects>
        <_>
          32 0 1 8 -1.</_>
        <_>
          32 4 1 4 2.</_></rects>
      <tilted>0</tilted></_></features></cascade>
</opencv_storage>
