<?xml version="1.0"?>
<opencv_storage>
<cascade>
  <stageType>BOOST</stageType>
  <featureType>HAAR</featureType>
  <height>38</height>
  <width>33</width>
  <stageParams>
    <boostType>GAB</boostType>
    <minHitRate>9.9500000476837158e-01</minHitRate>
    <maxFalseAlarm>5.0000000000000000e-01</maxFalseAlarm>
    <weightTrimRate>9.4999999999999996e-01</weightTrimRate>
    <maxDepth>1</maxDepth>
    <maxWeakCount>100</maxWeakCount></stageParams>
  <featureParams>
    <maxCatCount>0</maxCatCount>
    <featSize>1</featSize>
    <mode>BASIC</mode></featureParams>
  <stageNum>17</stageNum>
  <stages>
    <!-- stage 0 -->
    <_>
      <maxWeakCount>3</maxWeakCount>
      <stageThreshold>-1.1751314401626587e+00</stageThreshold>
      <weakClassifiers>
        <_>
          <internalNodes>
            0 -1 44 4.8142403364181519e-02</internalNodes>
          <leafValues>
            -8.7736463546752930e-01 7.3875802755355835e-01</leafValues></_>
        <_>
          <internalNodes>
            0 -1 70 -1.3814467005431652e-02</internalNodes>
          <leafValues>
            6.4840298891067505e-01 -8.6969727277755737e-01</leafValues></_>
        <_>
          <internalNodes>
            0 -1 30 -4.0782399475574493e-02</internalNodes>
          <leafValues>
            5.7193052768707275e-01 -9.3035328388214111e-01</leafValues></_></weakClassifiers></_>
    <!-- stage 1 -->
    <_>
      <maxWeakCount>3</maxWeakCount>
      <stageThreshold>-1.1133779287338257e+00</stageThreshold>
      <weakClassifiers>
        <_>
          <internalNodes>
            0 -1 50 -7.7622691169381142e-03</internalNodes>
          <leafValues>
            4.3804538249969482e-01 -8.7666434049606323e-01</leafValues></_>
        <_>
          <internalNodes>
            0 -1 16 -7.5055599212646484e-02</internalNodes>
          <leafValues>
            5.3092944622039795e-01 -7.5543427467346191e-01</leafValues></_>
        <_>
          <internalNodes>
            0 -1 58 -3.5521246027201414e-03</internalNodes>
          <leafValues>
            5.1872074604034424e-01 -7.5897461175918579e-01</leafValues></_></weakClassifiers></_>
    <!-- stage 2 -->
    <_>
      <maxWeakCount>4</maxWeakCount>
      <stageThreshold>-1.6788908243179321e+00</stageThreshold>
      <weakClassifiers>
        <_>
          <internalNodes>
            0 -1 56 -2.5316964834928513e-02</internalNodes>
          <leafValues>
            6.3049852848052979e-01 -7.3236888647079468e-01</leafValues></_>
        <_>
          <internalNodes>
            0 -1 29 -5.0208948552608490e-02</internalNodes>
          <leafValues>
            5.1619172096252441e-01 -7.5902795791625977e-01</leafValues></_>
        <_>
          <internalNodes>
            0 -1 93 1.6660587862133980e-02</internalNodes>
          <leafValues>
            -6.4049690961837769e-01 5.4048073291778564e-01</leafValues></_>
        <_>
          <internalNodes>
            0 -1 65 -3.6683049052953720e-02</internalNodes>
          <leafValues>
            4.5300298929214478e-01 -8.4214717149734497e-01</leafValues></_></weakClassifiers></_>
    <!-- stage 3 -->
    <_>
      <maxWeakCount>5</maxWeakCount>
      <stageThreshold>-1.8959180116653442e+00</stageThreshold>
      <weakClassifiers>
        <_>
          <internalNodes>
            0 -1 87 2.3362025618553162e-02</internalNodes>
          <leafValues>
            -8.5391569137573242e-01 1.9940476119518280e-01</leafValues></_>
        <_>
          <internalNodes>
            0 -1 57 -5.8263964019715786e-03</internalNodes>
          <leafValues>
            3.4137657284736633e-01 -7.1248006820678711e-01</leafValues></_>
        <_>
          <internalNodes>
            0 -1 63 1.8096774816513062e-02</internalNodes>
          <leafValues>
            -7.9700803756713867e-01 2.9174548387527466e-01</leafValues></_>
        <_>
          <internalNodes>
            0 -1 24 -3.8045106339268386e-04</internalNodes>
          <leafValues>
            2.4513652920722961e-01 -8.8902819156646729e-01</leafValues></_>
        <_>
          <internalNodes>
            0 -1 14 4.6132568968459964e-05</internalNodes>
          <leafValues>
            2.6776039600372314e-01 -9.4169574975967407e-01</leafValues></_></weakClassifiers></_>
    <!-- stage 4 -->
    <_>
      <maxWeakCount>5</maxWeakCount>
      <stageThreshold>-1.6908508539199829e+00</stageThreshold>
      <weakClassifiers>
        <_>
          <internalNodes>
            0 -1 88 -6.3080820254981518e-03</internalNodes>
          <leafValues>
            1.5728715062141418e-01 -8.4850805997848511e-01</leafValues></_>
        <_>
          <internalNodes>
            0 -1 45 1.7725758254528046e-02</internalNodes>
          <leafValues>
            -6.6123616695404053e-01 3.1349560618400574e-01</leafValues></_>
        <_>
          <internalNodes>
            0 -1 90 -2.7960161678493023e-03</internalNodes>
          <leafValues>
            3.7196314334869385e-01 -6.1329549551010132e-01</leafValues></_>
        <_>
          <internalNodes>
            0 -1 21 -1.4110794290900230e-04</internalNodes>
          <leafValues>
            2.5367560982704163e-01 -9.1052675247192383e-01</leafValues></_>
        <_>
          <internalNodes>
            0 -1 9 2.2574276663362980e-03</internalNodes>
          <leafValues>
            3.5745698213577271e-01 -8.1924074888229370e-01</leafValues></_></weakClassifiers></_>
    <!-- stage 5 -->
    <_>
      <maxWeakCount>7</maxWeakCount>
      <stageThreshold>-1.8591691255569458e+00</stageThreshold>
      <weakClassifiers>
        <_>
          <internalNodes>
            0 -1 39 3.5798482596874237e-02</internalNodes>
          <leafValues>
            -7.6032495498657227e-01 2.3518164455890656e-01</leafValues></_>
        <_>
          <internalNodes>
            0 -1 59 -3.5653344821184874e-03</internalNodes>
          <leafValues>
            2.9321184754371643e-01 -7.0089757442474365e-01</leafValues></_>
        <_>
          <internalNodes>
            0 -1 33 -1.8037108238786459e-03</internalNodes>
          <leafValues>
            -8.9544463157653809e-01 2.2694934904575348e-01</leafValues></_>
        <_>
          <internalNodes>
            0 -1 31 -1.5365181025117636e-04</internalNodes>
          <leafValues>
            -8.1267148256301880e-01 2.7316793799400330e-01</leafValues></_>
        <_>
          <internalNodes>
            0 -1 10 -4.9995098379440606e-05</internalNodes>
          <leafValues>
            2.1374240517616272e-01 -8.8732916116714478e-01</leafValues></_>
        <_>
          <internalNodes>
            0 -1 99 2.2610086016356945e-03</internalNodes>
          <leafValues>
            -4.0103140473365784e-01 6.5541750192642212e-01</leafValues></_>
        <_>
          <internalNodes>
            0 -1 71 -5.1330614951439202e-05</internalNodes>
          <leafValues>
            3.9029681682586670e-01 -6.9538152217864990e-01</leafValues></_></weakClassifiers></_>
    <!-- stage 6 -->
    <_>
      <maxWeakCount>6</maxWeakCount>
      <stageThreshold>-1.1350558996200562e+00</stageThreshold>
      <weakClassifiers>
        <_>
          <internalNodes>
            0 -1 83 4.0956544689834118e-03</internalNodes>
          <leafValues>
            -7.1743357181549072e-01 2.3413567245006561e-01</leafValues></_>
        <_>
          <internalNodes>
            0 -1 27 -6.4500257372856140e-02</internalNodes>
          <leafValues>
            7.1064203977584839e-01 -4.1350898146629333e-01</leafValues></_>
        <_>
          <internalNodes>
            0 -1 94 2.6430566795170307e-03</internalNodes>
          <leafValues>
            -5.4964572191238403e-01 4.5218452811241150e-01</leafValues></_>
        <_>
          <internalNodes>
            0 -1 7 -1.7115948721766472e-03</internalNodes>
          <leafValues>
            -8.8501882553100586e-01 2.4975785613059998e-01</leafValues></_>
        <_>
          <internalNodes>
            0 -1 66 -4.1002832353115082e-02</internalNodes>
          <leafValues>
            2.1021670103073120e-01 -9.2593914270401001e-01</leafValues></_>
        <_>
          <internalNodes>
            0 -1 38 -2.5707865133881569e-03</internalNodes>
          <leafValues>
            2.1988344192504883e-01 -7.6275092363357544e-01</leafValues></_></weakClassifiers></_>
    <!-- stage 7 -->
    <_>
      <maxWeakCount>6</maxWeakCount>
      <stageThreshold>-1.3050693273544312e+00</stageThreshold>
      <weakClassifiers>
        <_>
          <internalNodes>
            0 -1 34 -1.0805964469909668e-01</internalNodes>
          <leafValues>
            5.5932205915451050e-01 -6.4172333478927612e-01</leafValues></_>
        <_>
          <internalNodes>
            0 -1 82 2.6405141688883305e-03</internalNodes>
          <leafValues>
            -5.6377738714218140e-01 4.2135763168334961e-01</leafValues></_>
        <_>
          <internalNodes>
            0 -1 5 -2.1397145246737637e-05</internalNodes>
          <leafValues>
            2.9016759991645813e-01 -7.8038024902343750e-01</leafValues></_>
        <_>
          <internalNodes>
            0 -1 6 -2.6893778704106808e-04</internalNodes>
          <leafValues>
            -8.1460756063461304e-01 2.4536076188087463e-01</leafValues></_>
        <_>
          <internalNodes>
            0 -1 46 1.5708509832620621e-02</internalNodes>
          <leafValues>
            -8.9401477575302124e-01 2.2190664708614349e-01</leafValues></_>
        <_>
          <internalNodes>
            0 -1 103 -8.6310437836800702e-06</internalNodes>
          <leafValues>
            2.5891777873039246e-01 -6.6739332675933838e-01</leafValues></_></weakClassifiers></_>
    <!-- stage 8 -->
    <_>
      <maxWeakCount>7</maxWeakCount>
      <stageThreshold>-1.5978409051895142e+00</stageThreshold>
      <weakClassifiers>
        <_>
          <internalNodes>
            0 -1 86 5.1274113357067108e-03</internalNodes>
          <leafValues>
            -6.4685714244842529e-01 5.2799999713897705e-01</leafValues></_>
        <_>
          <internalNodes>
            0 -1 51 -5.4295179434120655e-03</internalNodes>
          <leafValues>
            3.0466613173484802e-01 -6.7048990726470947e-01</leafValues></_>
        <_>
          <internalNodes>
            0 -1 84 8.9104141807183623e-05</internalNodes>
          <leafValues>
            -5.1966446638107300e-01 3.5083007812500000e-01</leafValues></_>
        <_>
          <internalNodes>
            0 -1 97 -2.5467216037213802e-03</internalNodes>
          <leafValues>
            5.1108455657958984e-01 -4.0772479772567749e-01</leafValues></_>
        <_>
          <internalNodes>
            0 -1 15 -2.0150415366515517e-05</internalNodes>
          <leafValues>
            2.9594054818153381e-01 -7.9625701904296875e-01</leafValues></_>
        <_>
          <internalNodes>
            0 -1 18 -1.2456567492336035e-04</internalNodes>
          <leafValues>
            -7.0822405815124512e-01 2.4705278873443604e-01</leafValues></_>
        <_>
          <internalNodes>
            0 -1 60 8.3148712292313576e-03</internalNodes>
          <leafValues>
            -8.6075323820114136e-01 1.8868441879749298e-01</leafValues></_></weakClassifiers></_>
    <!-- stage 9 -->
    <_>
      <maxWeakCount>6</maxWeakCount>
      <stageThreshold>-1.2418657541275024e+00</stageThreshold>
      <weakClassifiers>
        <_>
          <internalNodes>
            0 -1 35 -1.0530376806855202e-02</internalNodes>
          <leafValues>
            1.3590264320373535e-01 -7.0802921056747437e-01</leafValues></_>
        <_>
          <internalNodes>
            0 -1 69 -1.2969078961759806e-03</internalNodes>
          <leafValues>
            2.0502442121505737e-01 -6.6944134235382080e-01</leafValues></_>
        <_>
          <internalNodes>
            0 -1 92 2.0939968526363373e-02</internalNodes>
          <leafValues>
            -6.5147668123245239e-01 2.7800661325454712e-01</leafValues></_>
        <_>
          <internalNodes>
            0 -1 62 -8.1432706792838871e-05</internalNodes>
          <leafValues>
            2.6212072372436523e-01 -7.5493150949478149e-01</leafValues></_>
        <_>
          <internalNodes>
            0 -1 12 -1.1846153938677162e-05</internalNodes>
          <leafValues>
            2.1557387709617615e-01 -7.5441849231719971e-01</leafValues></_>
        <_>
          <internalNodes>
            0 -1 96 1.9444106146693230e-03</internalNodes>
          <leafValues>
            -3.9195844531059265e-01 5.0077354907989502e-01</leafValues></_></weakClassifiers></_>
    <!-- stage 10 -->
    <_>
      <maxWeakCount>6</maxWeakCount>
      <stageThreshold>-1.2626495361328125e+00</stageThreshold>
      <weakClassifiers>
        <_>
          <internalNodes>
            0 -1 49 -2.5783460587263107e-02</internalNodes>
          <leafValues>
            3.0864197015762329e-01 -6.5632456541061401e-01</leafValues></_>
        <_>
          <internalNodes>
            0 -1 17 -1.5710917068645358e-04</internalNodes>
          <leafValues>
            -7.6884144544601440e-01 1.8429039418697357e-01</leafValues></_>
        <_>
          <internalNodes>
            0 -1 25 -1.2394927580317017e-05</internalNodes>
          <leafValues>
            1.6434751451015472e-01 -8.4756702184677124e-01</leafValues></_>
        <_>
          <internalNodes>
            0 -1 37 8.9201722294092178e-03</internalNodes>
          <leafValues>
            -5.9360343217849731e-01 2.6497632265090942e-01</leafValues></_>
        <_>
          <internalNodes>
            0 -1 68 -6.4942734315991402e-03</internalNodes>
          <leafValues>
            2.6683685183525085e-01 -6.5070688724517822e-01</leafValues></_>
        <_>
          <internalNodes>
            0 -1 105 -6.3001252710819244e-03</internalNodes>
          <leafValues>
            4.7827026247978210e-01 -3.7030661106109619e-01</leafValues></_></weakClassifiers></_>
    <!-- stage 11 -->
    <_>
      <maxWeakCount>8</maxWeakCount>
      <stageThreshold>-1.3549998998641968e+00</stageThreshold>
      <weakClassifiers>
        <_>
          <internalNodes>
            0 -1 28 -7.9474672675132751e-02</internalNodes>
          <leafValues>
            4.0562248229980469e-01 -6.2878352403640747e-01</leafValues></_>
        <_>
          <internalNodes>
            0 -1 81 2.3697428405284882e-03</internalNodes>
          <leafValues>
            -5.7056224346160889e-01 2.5217697024345398e-01</leafValues></_>
        <_>
          <internalNodes>
            0 -1 52 1.8853251822292805e-03</internalNodes>
          <leafValues>
            2.1162900328636169e-01 -7.8605914115905762e-01</leafValues></_>
        <_>
          <internalNodes>
            0 -1 74 5.5544718634337187e-04</internalNodes>
          <leafValues>
            -6.4021456241607666e-01 2.6985129714012146e-01</leafValues></_>
        <_>
          <internalNodes>
            0 -1 23 -1.7255457350984216e-05</internalNodes>
          <leafValues>
            2.2446277737617493e-01 -7.7951365709304810e-01</leafValues></_>
        <_>
          <internalNodes>
            0 -1 32 -1.7486144497524947e-04</internalNodes>
          <leafValues>
            -6.9781160354614258e-01 2.4112616479396820e-01</leafValues></_>
        <_>
          <internalNodes>
            0 -1 43 -3.5409592092037201e-02</internalNodes>
          <leafValues>
            7.5123149156570435e-01 -2.6100197434425354e-01</leafValues></_>
        <_>
          <internalNodes>
            0 -1 40 7.1943271905183792e-04</internalNodes>
          <leafValues>
            2.5270387530326843e-01 -6.6677254438400269e-01</leafValues></_></weakClassifiers></_>
    <!-- stage 12 -->
    <_>
      <maxWeakCount>7</maxWeakCount>
      <stageThreshold>-1.2523025274276733e+00</stageThreshold>
      <weakClassifiers>
        <_>
          <internalNodes>
            0 -1 78 -5.0137527287006378e-03</internalNodes>
          <leafValues>
            3.9271256327629089e-01 -6.2578439712524414e-01</leafValues></_>
        <_>
          <internalNodes>
            0 -1 72 -2.4570478126406670e-03</internalNodes>
          <leafValues>
            2.2348710894584656e-01 -6.0050451755523682e-01</leafValues></_>
        <_>
          <internalNodes>
            0 -1 4 2.2027734667062759e-02</internalNodes>
          <leafValues>
            -2.4966183304786682e-01 6.6767674684524536e-01</leafValues></_>
        <_>
          <internalNodes>
            0 -1 106 -2.0343918004073203e-04</internalNodes>
          <leafValues>
            2.9211887717247009e-01 -5.7894444465637207e-01</leafValues></_>
        <_>
          <internalNodes>
            0 -1 101 2.2268357861321419e-04</internalNodes>
          <leafValues>
            3.0906307697296143e-01 -5.3897464275360107e-01</leafValues></_>
        <_>
          <internalNodes>
            0 -1 26 1.9364090985618532e-04</internalNodes>
          <leafValues>
            1.7930135130882263e-01 -7.6514613628387451e-01</leafValues></_>
        <_>
          <internalNodes>
            0 -1 95 1.1404640972614288e-03</internalNodes>
          <leafValues>
            -4.7768577933311462e-01 3.3827424049377441e-01</leafValues></_></weakClassifiers></_>
    <!-- stage 13 -->
    <_>
      <maxWeakCount>8</maxWeakCount>
      <stageThreshold>-1.3715655803680420e+00</stageThreshold>
      <weakClassifiers>
        <_>
          <internalNodes>
            0 -1 55 -7.6823383569717407e-03</internalNodes>
          <leafValues>
            5.1546388864517212e-01 -6.0908085107803345e-01</leafValues></_>
        <_>
          <internalNodes>
            0 -1 8 2.1799971000291407e-04</internalNodes>
          <leafValues>
            1.4070507884025574e-01 -7.4415856599807739e-01</leafValues></_>
        <_>
          <internalNodes>
            0 -1 20 3.1725650187581778e-03</internalNodes>
          <leafValues>
            -7.1303987503051758e-01 1.7677974700927734e-01</leafValues></_>
        <_>
          <internalNodes>
            0 -1 13 -1.7250142263947055e-05</internalNodes>
          <leafValues>
            1.9004474580287933e-01 -7.7230542898178101e-01</leafValues></_>
        <_>
          <internalNodes>
            0 -1 85 2.4636453017592430e-03</internalNodes>
          <leafValues>
            -4.6347901225090027e-01 3.3590248227119446e-01</leafValues></_>
        <_>
          <internalNodes>
            0 -1 67 8.3284918218851089e-03</internalNodes>
          <leafValues>
            1.9524852931499481e-01 -7.6510471105575562e-01</leafValues></_>
        <_>
          <internalNodes>
            0 -1 102 1.8026556354016066e-03</internalNodes>
          <leafValues>
            -6.4010369777679443e-01 2.2547927498817444e-01</leafValues></_>
        <_>
          <internalNodes>
            0 -1 79 -2.2917836904525757e-03</internalNodes>
          <leafValues>
            6.1594516038894653e-01 -2.5196132063865662e-01</leafValues></_></weakClassifiers></_>
    <!-- stage 14 -->
    <_>
      <maxWeakCount>9</maxWeakCount>
      <stageThreshold>-1.5002462863922119e+00</stageThreshold>
      <weakClassifiers>
        <_>
          <internalNodes>
            0 -1 64 1.0872006416320801e-02</internalNodes>
          <leafValues>
            -6.1283063888549805e-01 3.9910313487052917e-01</leafValues></_>
        <_>
          <internalNodes>
            0 -1 48 6.8267688155174255e-02</internalNodes>
          <leafValues>
            -6.1191225051879883e-01 2.0194287598133087e-01</leafValues></_>
        <_>
          <internalNodes>
            0 -1 80 -2.1772868931293488e-03</internalNodes>
          <leafValues>
            -9.8556762933731079e-01 1.2909178435802460e-01</leafValues></_>
        <_>
          <internalNodes>
            0 -1 91 2.6552630588412285e-03</internalNodes>
          <leafValues>
            -3.0526101589202881e-01 5.7869368791580200e-01</leafValues></_>
        <_>
          <internalNodes>
            0 -1 61 -4.8559382557868958e-03</internalNodes>
          <leafValues>
            -8.4862643480300903e-01 2.2231414914131165e-01</leafValues></_>
        <_>
          <internalNodes>
            0 -1 77 -4.0838150307536125e-03</internalNodes>
          <leafValues>
            7.9150259494781494e-01 -2.5352907180786133e-01</leafValues></_>
        <_>
          <internalNodes>
            0 -1 22 2.0169059280306101e-04</internalNodes>
          <leafValues>
            2.4748954176902771e-01 -8.4109634160995483e-01</leafValues></_>
        <_>
          <internalNodes>
            0 -1 108 -4.1967615834437311e-04</internalNodes>
          <leafValues>
            2.5696307420730591e-01 -5.5944782495498657e-01</leafValues></_>
        <_>
          <internalNodes>
            0 -1 98 -1.9427206367254257e-02</internalNodes>
          <leafValues>
            4.9993848800659180e-01 -3.1548640131950378e-01</leafValues></_></weakClassifiers></_>
    <!-- stage 15 -->
    <_>
      <maxWeakCount>10</maxWeakCount>
      <stageThreshold>-1.4871330261230469e+00</stageThreshold>
      <weakClassifiers>
        <_>
          <internalNodes>
            0 -1 41 -1.9771490246057510e-02</internalNodes>
          <leafValues>
            2.3278687894344330e-01 -6.3185840845108032e-01</leafValues></_>
        <_>
          <internalNodes>
            0 -1 100 8.6237632785923779e-05</internalNodes>
          <leafValues>
            1.3552136719226837e-01 -7.3148769140243530e-01</leafValues></_>
        <_>
          <internalNodes>
            0 -1 1 -6.3583984971046448e-02</internalNodes>
          <leafValues>
            5.5145585536956787e-01 -2.8359097242355347e-01</leafValues></_>
        <_>
          <internalNodes>
            0 -1 76 8.2396045327186584e-03</internalNodes>
          <leafValues>
            -3.5091203451156616e-01 4.2562171816825867e-01</leafValues></_>
        <_>
          <internalNodes>
            0 -1 19 -8.4427301771938801e-05</internalNodes>
          <leafValues>
            2.0321616530418396e-01 -8.3669662475585938e-01</leafValues></_>
        <_>
          <internalNodes>
            0 -1 53 -4.8670719843357801e-04</internalNodes>
          <leafValues>
            3.8123878836631775e-01 -3.5790398716926575e-01</leafValues></_>
        <_>
          <internalNodes>
            0 -1 3 -2.9474500566720963e-02</internalNodes>
          <leafValues>
            2.0241713523864746e-01 -7.9189676046371460e-01</leafValues></_>
        <_>
          <internalNodes>
            0 -1 89 2.4058446288108826e-03</internalNodes>
          <leafValues>
            -4.4262108206748962e-01 3.4539771080017090e-01</leafValues></_>
        <_>
          <internalNodes>
            0 -1 75 3.1884334748610854e-04</internalNodes>
          <leafValues>
            1.5576541423797607e-01 -9.4454640150070190e-01</leafValues></_>
        <_>
          <internalNodes>
            0 -1 54 -2.4045277386903763e-03</internalNodes>
          <leafValues>
            -7.5852406024932861e-01 1.3800451159477234e-01</leafValues></_></weakClassifiers></_>
    <!-- stage 16 -->
    <_>
      <maxWeakCount>10</maxWeakCount>
      <stageThreshold>-1.4092525243759155e+00</stageThreshold>
      <weakClassifiers>
        <_>
          <internalNodes>
            0 -1 73 4.5918426476418972e-03</internalNodes>
          <leafValues>
            -6.0132157802581787e-01 5.0000000000000000e-01</leafValues></_>
        <_>
          <internalNodes>
            0 -1 42 1.3847127556800842e-03</internalNodes>
          <leafValues>
            -6.8797135353088379e-01 1.7099651694297791e-01</leafValues></_>
        <_>
          <internalNodes>
            0 -1 47 2.2197016514837742e-03</internalNodes>
          <leafValues>
            -5.0512301921844482e-01 2.6335108280181885e-01</leafValues></_>
        <_>
          <internalNodes>
            0 -1 2 1.4301877468824387e-02</internalNodes>
          <leafValues>
            -2.0827537775039673e-01 6.5846031904220581e-01</leafValues></_>
        <_>
          <internalNodes>
            0 -1 107 3.9563834434375167e-05</internalNodes>
          <leafValues>
            2.7227896451950073e-01 -5.8476120233535767e-01</leafValues></_>
        <_>
          <internalNodes>
            0 -1 0 3.1287252204492688e-04</internalNodes>
          <leafValues>
            -6.8059927225112915e-01 2.0662683248519897e-01</leafValues></_>
        <_>
          <internalNodes>
            0 -1 11 -1.3425682482193224e-05</internalNodes>
          <leafValues>
            2.0855131745338440e-01 -7.0836442708969116e-01</leafValues></_>
        <_>
          <internalNodes>
            0 -1 36 -9.3854602891951799e-04</internalNodes>
          <leafValues>
            2.8494298458099365e-01 -4.8359280824661255e-01</leafValues></_>
        <_>
          <internalNodes>
            0 -1 104 1.5430714483954944e-05</internalNodes>
          <leafValues>
            2.4954162538051605e-01 -5.7038623094558716e-01</leafValues></_>
        <_>
          <internalNodes>
            0 -1 84 5.6738477724138647e-05</internalNodes>
          <leafValues>
            -5.7055503129959106e-01 2.7397617697715759e-01</leafValues></_></weakClassifiers></_></stages>
  <features>
    <_>
      <rects>
        <_>
          0 0 3 33 -1.</_>
        <_>
          0 11 3 11 3.</_></rects>
      <tilted>0</tilted></_>
    <_>
      <rects>
        <_>
          0 0 8 38 -1.</_>
        <_>
          4 0 4 38 2.</_></rects>
      <tilted>0</tilted></_>
    <_>
      <rects>
        <_>
          0 2 9 13 -1.</_>
        <_>
          3 2 3 13 3.</_></rects>
      <tilted>0</tilted></_>
    <_>
      <rects>
        <_>
          0 3 16 26 -1.</_>
        <_>
          0 3 8 13 2.</_>
        <_>
          8 16 8 13 2.</_></rects>
      <tilted>0</tilted></_>
    <_>
      <rects>
        <_>
          0 4 9 16 -1.</_>
        <_>
          3 4 3 16 3.</_></rects>
      <tilted>0</tilted></_>
    <_>
      <rects>
        <_>
          0 5 1 12 -1.</_>
        <_>
          0 11 1 6 2.</_></rects>
      <tilted>0</tilted></_>
    <_>
      <rects>
        <_>
          0 5 1 21 -1.</_>
        <_>
          0 12 1 7 3.</_></rects>
      <tilted>0</tilted></_>
    <_>
      <rects>
        <_>
          0 5 1 33 -1.</_>
        <_>
          0 16 1 11 3.</_></rects>
      <tilted>0</tilted></_>
    <_>
      <rects>
        <_>
          0 6 1 12 -1.</_>
        <_>
          0 10 1 4 3.</_></rects>
      <tilted>0</tilted></_>
    <_>
      <rects>
        <_>
          0 8 1 27 -1.</_>
        <_>
          0 17 1 9 3.</_></rects>
      <tilted>0</tilted></_>
    <_>
      <rects>
        <_>
          0 9 1 14 -1.</_>
        <_>
          0 16 1 7 2.</_></rects>
      <tilted>0</tilted></_>
    <_>
      <rects>
        <_>
          0 10 1 6 -1.</_>
        <_>
          0 13 1 3 2.</_></rects>
      <tilted>0</tilted></_>
    <_>
      <rects>
        <_>
          0 11 1 6 -1.</_>
        <_>
          0 14 1 3 2.</_></rects>
      <tilted>0</tilted></_>
    <_>
      <rects>
        <_>
          0 13 2 6 -1.</_>
        <_>
          0 16 2 3 2.</_></rects>
      <tilted>0</tilted></_>
    <_>
      <rects>
        <_>
          0 21 1 8 -1.</_>
        <_>
          0 25 1 4 2.</_></rects>
      <tilted>0</tilted></_>
    <_>
      <rects>
        <_>
          0 23 1 6 -1.</_>
        <_>
          0 26 1 3 2.</_></rects>
      <tilted>0</tilted></_>
    <_>
      <rects>
        <_>
          0 23 24 7 -1.</_>
        <_>
          8 23 8 7 3.</_></rects>
      <tilted>0</tilted></_>
    <_>
      <rects>
        <_>
          0 24 1 4 -1.</_>
        <_>
          0 26 1 2 2.</_></rects>
      <tilted>0</tilted></_>
    <_>
      <rects>
        <_>
          0 25 1 4 -1.</_>
        <_>
          0 27 1 2 2.</_></rects>
      <tilted>0</tilted></_>
    <_>
      <rects>
        <_>
          0 25 3 6 -1.</_>
        <_>
          0 28 3 3 2.</_></rects>
      <tilted>0</tilted></_>
    <_>
      <rects>
        <_>
          0 25 32 6 -1.</_>
        <_>
          16 25 16 6 2.</_></rects>
      <tilted>0</tilted></_>
    <_>
      <rects>
        <_>
          0 26 3 8 -1.</_>
        <_>
          0 30 3 4 2.</_></rects>
      <tilted>0</tilted></_>
    <_>
      <rects>
        <_>
          0 28 6 4 -1.</_>
        <_>
          0 28 3 2 2.</_>
        <_>
          3 30 3 2 2.</_></rects>
      <tilted>0</tilted></_>
    <_>
      <rects>
        <_>
          0 29 3 4 -1.</_>
        <_>
          0 31 3 2 2.</_></rects>
      <tilted>0</tilted></_>
    <_>
      <rects>
        <_>
          0 29 5 8 -1.</_>
        <_>
          0 33 5 4 2.</_></rects>
      <tilted>0</tilted></_>
    <_>
      <rects>
        <_>
          0 32 1 6 -1.</_>
        <_>
          0 35 1 3 2.</_></rects>
      <tilted>0</tilted></_>
    <_>
      <rects>
        <_>
          0 34 4 4 -1.</_>
        <_>
          0 34 2 2 2.</_>
        <_>
          2 36 2 2 2.</_></rects>
      <tilted>0</tilted></_>
    <_>
      <rects>
        <_>
          1 10 8 28 -1.</_>
        <_>
          5 10 4 28 2.</_></rects>
      <tilted>0</tilted></_>
    <_>
      <rects>
        <_>
          1 12 8 26 -1.</_>
        <_>
          5 12 4 26 2.</_></rects>
      <tilted>0</tilted></_>
    <_>
      <rects>
        <_>
          1 20 30 4 -1.</_>
        <_>
          11 20 10 4 3.</_></rects>
      <tilted>0</tilted></_>
    <_>
      <rects>
        <_>
          1 22 27 5 -1.</_>
        <_>
          10 22 9 5 3.</_></rects>
      <tilted>0</tilted></_>
    <_>
      <rects>
        <_>
          1 29 1 4 -1.</_>
        <_>
          1 31 1 2 2.</_></rects>
      <tilted>0</tilted></_>
    <_>
      <rects>
        <_>
          2 29 1 4 -1.</_>
        <_>
          2 31 1 2 2.</_></rects>
      <tilted>0</tilted></_>
    <_>
      <rects>
        <_>
          3 11 5 27 -1.</_>
        <_>
          3 20 5 9 3.</_></rects>
      <tilted>0</tilted></_>
    <_>
      <rects>
        <_>
          4 24 15 10 -1.</_>
        <_>
          9 24 5 10 3.</_></rects>
      <tilted>0</tilted></_>
    <_>
      <rects>
        <_>
          5 25 12 6 -1.</_>
        <_>
          5 28 12 3 2.</_></rects>
      <tilted>0</tilted></_>
    <_>
      <rects>
        <_>
          6 0 26 12 -1.</_>
        <_>
          6 0 13 6 2.</_>
        <_>
          19 6 13 6 2.</_></rects>
      <tilted>0</tilted></_>
    <_>
      <rects>
        <_>
          6 17 20 21 -1.</_>
        <_>
          6 24 20 7 3.</_></rects>
      <tilted>0</tilted></_>
    <_>
      <rects>
        <_>
          7 11 12 3 -1.</_>
        <_>
          13 11 6 3 2.</_></rects>
      <tilted>0</tilted></_>
    <_>
      <rects>
        <_>
          7 19 14 10 -1.</_>
        <_>
          7 19 7 5 2.</_>
        <_>
          14 24 7 5 2.</_></rects>
      <tilted>0</tilted></_>
    <_>
      <rects>
        <_>
          7 20 4 15 -1.</_>
        <_>
          7 25 4 5 3.</_></rects>
      <tilted>0</tilted></_>
    <_>
      <rects>
        <_>
          8 2 24 9 -1.</_>
        <_>
          8 5 24 3 3.</_></rects>
      <tilted>0</tilted></_>
    <_>
      <rects>
        <_>
          8 15 6 4 -1.</_>
        <_>
          10 15 2 4 3.</_></rects>
      <tilted>0</tilted></_>
    <_>
      <rects>
        <_>
          8 21 7 12 -1.</_>
        <_>
          8 27 7 6 2.</_></rects>
      <tilted>0</tilted></_>
    <_>
      <rects>
        <_>
          9 11 12 22 -1.</_>
        <_>
          9 11 6 11 2.</_>
        <_>
          15 22 6 11 2.</_></rects>
      <tilted>0</tilted></_>
    <_>
      <rects>
        <_>
          9 16 6 22 -1.</_>
        <_>
          9 16 3 11 2.</_>
        <_>
          12 27 3 11 2.</_></rects>
      <tilted>0</tilted></_>
    <_>
      <rects>
        <_>
          9 22 24 6 -1.</_>
        <_>
          21 22 12 6 2.</_></rects>
      <tilted>0</tilted></_>
    <_>
      <rects>
        <_>
          9 23 8 4 -1.</_>
        <_>
          9 23 4 2 2.</_>
        <_>
          13 25 4 2 2.</_></rects>
      <tilted>0</tilted></_>
    <_>
      <rects>
        <_>
          10 6 20 24 -1.</_>
        <_>
          10 6 10 12 2.</_>
        <_>
          20 18 10 12 2.</_></rects>
      <tilted>0</tilted></_>
    <_>
      <rects>
        <_>
          10 10 1 28 -1.</_>
        <_>
          10 24 1 14 2.</_></rects>
      <tilted>0</tilted></_>
    <_>
      <rects>
        <_>
          10 15 4 8 -1.</_>
        <_>
          12 15 2 8 2.</_></rects>
      <tilted>0</tilted></_>
    <_>
      <rects>
        <_>
          10 17 4 5 -1.</_>
        <_>
          12 17 2 5 2.</_></rects>
      <tilted>0</tilted></_>
    <_>
      <rects>
        <_>
          10 18 21 5 -1.</_>
        <_>
          17 18 7 5 3.</_></rects>
      <tilted>0</tilted></_>
    <_>
      <rects>
        <_>
          10 28 8 2 -1.</_>
        <_>
          10 29 8 1 2.</_></rects>
      <tilted>0</tilted></_>
    <_>
      <rects>
        <_>
          11 1 22 34 -1.</_>
        <_>
          22 1 11 34 2.</_></rects>
      <tilted>0</tilted></_>
    <_>
      <rects>
        <_>
          11 1 19 3 -1.</_>
        <_>
          11 2 19 1 3.</_></rects>
      <tilted>0</tilted></_>
    <_>
      <rects>
        <_>
          11 6 1 32 -1.</_>
        <_>
          11 22 1 16 2.</_></rects>
      <tilted>0</tilted></_>
    <_>
      <rects>
        <_>
          11 14 4 6 -1.</_>
        <_>
          13 14 2 6 2.</_></rects>
      <tilted>0</tilted></_>
    <_>
      <rects>
        <_>
          11 14 6 4 -1.</_>
        <_>
          14 14 3 4 2.</_></rects>
      <tilted>0</tilted></_>
    <_>
      <rects>
        <_>
          11 15 4 4 -1.</_>
        <_>
          13 15 2 4 2.</_></rects>
      <tilted>0</tilted></_>
    <_>
      <rects>
        <_>
          11 15 12 14 -1.</_>
        <_>
          17 15 6 14 2.</_></rects>
      <tilted>0</tilted></_>
    <_>
      <rects>
        <_>
          11 16 4 9 -1.</_>
        <_>
          11 19 4 3 3.</_></rects>
      <tilted>0</tilted></_>
    <_>
      <rects>
        <_>
          11 21 7 2 -1.</_>
        <_>
          11 22 7 1 2.</_></rects>
      <tilted>0</tilted></_>
    <_>
      <rects>
        <_>
          11 21 22 4 -1.</_>
        <_>
          22 21 11 4 2.</_></rects>
      <tilted>0</tilted></_>
    <_>
      <rects>
        <_>
          12 0 21 3 -1.</_>
        <_>
          12 1 21 1 3.</_></rects>
      <tilted>0</tilted></_>
    <_>
      <rects>
        <_>
          12 1 3 30 -1.</_>
        <_>
          12 16 3 15 2.</_></rects>
      <tilted>0</tilted></_>
    <_>
      <rects>
        <_>
          12 1 18 26 -1.</_>
        <_>
          12 14 18 13 2.</_></rects>
      <tilted>0</tilted></_>
    <_>
      <rects>
        <_>
          12 5 21 26 -1.</_>
        <_>
          12 18 21 13 2.</_></rects>
      <tilted>0</tilted></_>
    <_>
      <rects>
        <_>
          12 9 2 12 -1.</_>
        <_>
          12 15 2 6 2.</_></rects>
      <tilted>0</tilted></_>
    <_>
      <rects>
        <_>
          12 14 4 2 -1.</_>
        <_>
          14 14 2 2 2.</_></rects>
      <tilted>0</tilted></_>
    <_>
      <rects>
        <_>
          13 5 2 18 -1.</_>
        <_>
          13 14 2 9 2.</_></rects>
      <tilted>0</tilted></_>
    <_>
      <rects>
        <_>
          13 22 3 2 -1.</_>
        <_>
          13 23 3 1 2.</_></rects>
      <tilted>0</tilted></_>
    <_>
      <rects>
        <_>
          13 32 14 6 -1.</_>
        <_>
          13 35 14 3 2.</_></rects>
      <tilted>0</tilted></_>
    <_>
      <rects>
        <_>
          14 9 9 3 -1.</_>
        <_>
          14 10 9 1 3.</_></rects>
      <tilted>0</tilted></_>
    <_>
      <rects>
        <_>
          14 13 2 12 -1.</_>
        <_>
          14 13 1 6 2.</_>
        <_>
          15 19 1 6 2.</_></rects>
      <tilted>0</tilted></_>
    <_>
      <rects>
        <_>
          14 20 1 3 -1.</_>
        <_>
          14 21 1 1 3.</_></rects>
      <tilted>0</tilted></_>
    <_>
      <rects>
        <_>
          15 0 7 12 -1.</_>
        <_>
          15 4 7 4 3.</_></rects>
      <tilted>0</tilted></_>
    <_>
      <rects>
        <_>
          15 0 15 3 -1.</_>
        <_>
          15 1 15 1 3.</_></rects>
      <tilted>0</tilted></_>
    <_>
      <rects>
        <_>
          15 7 14 3 -1.</_>
        <_>
          15 8 14 1 3.</_></rects>
      <tilted>0</tilted></_>
    <_>
      <rects>
        <_>
          15 9 10 3 -1.</_>
        <_>
          15 10 10 1 3.</_></rects>
      <tilted>0</tilted></_>
    <_>
      <rects>
        <_>
          15 17 2 6 -1.</_>
        <_>
          15 20 2 3 2.</_></rects>
      <tilted>0</tilted></_>
    <_>
      <rects>
        <_>
          16 14 6 11 -1.</_>
        <_>
          18 14 2 11 3.</_></rects>
      <tilted>0</tilted></_>
    <_>
      <rects>
        <_>
          16 15 6 5 -1.</_>
        <_>
          18 15 2 5 3.</_></rects>
      <tilted>0</tilted></_>
    <_>
      <rects>
        <_>
          16 16 6 3 -1.</_>
        <_>
          18 16 2 3 3.</_></rects>
      <tilted>0</tilted></_>
    <_>
      <rects>
        <_>
          16 20 2 3 -1.</_>
        <_>
          16 21 2 1 3.</_></rects>
      <tilted>0</tilted></_>
    <_>
      <rects>
        <_>
          16 22 4 6 -1.</_>
        <_>
          16 24 4 2 3.</_></rects>
      <tilted>0</tilted></_>
    <_>
      <rects>
        <_>
          17 0 14 3 -1.</_>
        <_>
          17 1 14 1 3.</_></rects>
      <tilted>0</tilted></_>
    <_>
      <rects>
        <_>
          17 18 5 18 -1.</_>
        <_>
          17 24 5 6 3.</_></rects>
      <tilted>0</tilted></_>
    <_>
      <rects>
        <_>
          17 20 12 6 -1.</_>
        <_>
          17 20 6 3 2.</_>
        <_>
          23 23 6 3 2.</_></rects>
      <tilted>0</tilted></_>
    <_>
      <rects>
        <_>
          17 21 4 6 -1.</_>
        <_>
          17 23 4 2 3.</_></rects>
      <tilted>0</tilted></_>
    <_>
      <rects>
        <_>
          17 30 10 6 -1.</_>
        <_>
          17 33 10 3 2.</_></rects>
      <tilted>0</tilted></_>
    <_>
      <rects>
        <_>
          18 11 2 8 -1.</_>
        <_>
          18 15 2 4 2.</_></rects>
      <tilted>0</tilted></_>
    <_>
      <rects>
        <_>
          18 17 6 18 -1.</_>
        <_>
          18 23 6 6 3.</_></rects>
      <tilted>0</tilted></_>
    <_>
      <rects>
        <_>
          18 18 6 15 -1.</_>
        <_>
          18 23 6 5 3.</_></rects>
      <tilted>0</tilted></_>
    <_>
      <rects>
        <_>
          18 20 2 6 -1.</_>
        <_>
          18 23 2 3 2.</_></rects>
      <tilted>0</tilted></_>
    <_>
      <rects>
        <_>
          18 21 3 6 -1.</_>
        <_>
          18 23 3 2 3.</_></rects>
      <tilted>0</tilted></_>
    <_>
      <rects>
        <_>
          19 14 2 6 -1.</_>
        <_>
          19 16 2 2 3.</_></rects>
      <tilted>0</tilted></_>
    <_>
      <rects>
        <_>
          19 17 6 3 -1.</_>
        <_>
          21 17 2 3 3.</_></rects>
      <tilted>0</tilted></_>
    <_>
      <rects>
        <_>
          20 10 13 12 -1.</_>
        <_>
          20 14 13 4 3.</_></rects>
      <tilted>0</tilted></_>
    <_>
      <rects>
        <_>
          20 12 1 9 -1.</_>
        <_>
          20 15 1 3 3.</_></rects>
      <tilted>0</tilted></_>
    <_>
      <rects>
        <_>
          20 26 4 1 -1.</_>
        <_>
          22 26 2 1 2.</_></rects>
      <tilted>0</tilted></_>
    <_>
      <rects>
        <_>
          20 27 9 1 -1.</_>
        <_>
          23 27 3 1 3.</_></rects>
      <tilted>0</tilted></_>
    <_>
      <rects>
        <_>
          22 17 6 5 -1.</_>
        <_>
          25 17 3 5 2.</_></rects>
      <tilted>0</tilted></_>
    <_>
      <rects>
        <_>
          24 26 6 4 -1.</_>
        <_>
          27 26 3 4 2.</_></rects>
      <tilted>0</tilted></_>
    <_>
      <rects>
        <_>
          24 28 4 2 -1.</_>
        <_>
          26 28 2 2 2.</_></rects>
      <tilted>0</tilted></_>
    <_>
      <rects>
        <_>
          27 6 6 31 -1.</_>
        <_>
          29 6 2 31 3.</_></rects>
      <tilted>0</tilted></_>
    <_>
      <rects>
        <_>
          27 20 1 10 -1.</_>
        <_>
          27 25 1 5 2.</_></rects>
      <tilted>0</tilted></_>
    <_>
      <rects>
        <_>
          27 29 6 1 -1.</_>
        <_>
          30 29 3 1 2.</_></rects>
      <tilted>0</tilted></_>
    <_>
      <rects>
        <_>
          29 26 1 10 -1.</_>
        <_>
          29 31 1 5 2.</_></rects>
      <tilted>0</tilted></_></features></cascade>
</opencv_storage>
