<?xml version="1.0"?>
<opencv_storage>
<stage3>
  <maxWeakCount>5</maxWeakCount>
  <stageThreshold>-1.8959180116653442e+00</stageThreshold>
  <weakClassifiers>
    <_>
      <internalNodes>
        0 -1 599062 2.3362025618553162e-02</internalNodes>
      <leafValues>
        -8.5391569137573242e-01 1.9940476119518280e-01</leafValues></_>
    <_>
      <internalNodes>
        0 -1 441349 -5.8263964019715786e-03</internalNodes>
      <leafValues>
        3.4137657284736633e-01 -7.1248006820678711e-01</leafValues></_>
    <_>
      <internalNodes>
        0 -1 447811 1.8096774816513062e-02</internalNodes>
      <leafValues>
        -7.9700803756713867e-01 2.9174548387527466e-01</leafValues></_>
    <_>
      <internalNodes>
        0 -1 42959 -3.8045106339268386e-04</internalNodes>
      <leafValues>
        2.4513652920722961e-01 -8.8902819156646729e-01</leafValues></_>
    <_>
      <internalNodes>
        0 -1 36290 4.6132568968459964e-05</internalNodes>
      <leafValues>
        2.6776039600372314e-01 -9.4169574975967407e-01</leafValues></_></weakClassifiers></stage3>
</opencv_storage>
