<?xml version="1.0"?>
<opencv_storage>
<stage11>
  <maxWeakCount>8</maxWeakCount>
  <stageThreshold>-1.3549998998641968e+00</stageThreshold>
  <weakClassifiers>
    <_>
      <internalNodes>
        0 -1 69148 -7.9474672675132751e-02</internalNodes>
      <leafValues>
        4.0562248229980469e-01 -6.2878352403640747e-01</leafValues></_>
    <_>
      <internalNodes>
        0 -1 573933 2.3697428405284882e-03</internalNodes>
      <leafValues>
        -5.7056224346160889e-01 2.5217697024345398e-01</leafValues></_>
    <_>
      <internalNodes>
        0 -1 414810 1.8853251822292805e-03</internalNodes>
      <leafValues>
        2.1162900328636169e-01 -7.8605914115905762e-01</leafValues></_>
    <_>
      <internalNodes>
        0 -1 524043 5.5544718634337187e-04</internalNodes>
      <leafValues>
        -6.4021456241607666e-01 2.6985129714012146e-01</leafValues></_>
    <_>
      <internalNodes>
        0 -1 42891 -1.7255457350984216e-05</internalNodes>
      <leafValues>
        2.2446277737617493e-01 -7.7951365709304810e-01</leafValues></_>
    <_>
      <internalNodes>
        0 -1 129474 -1.7486144497524947e-04</internalNodes>
      <leafValues>
        -6.9781160354614258e-01 2.4112616479396820e-01</leafValues></_>
    <_>
      <internalNodes>
        0 -1 352102 -3.5409592092037201e-02</internalNodes>
      <leafValues>
        7.5123149156570435e-01 -2.6100197434425354e-01</leafValues></_>
    <_>
      <internalNodes>
        0 -1 316695 7.1943271905183792e-04</internalNodes>
      <leafValues>
        2.5270387530326843e-01 -6.6677254438400269e-01</leafValues></_></weakClassifiers></stage11>
</opencv_storage>
