<?xml version="1.0"?>
<opencv_storage>
<stage14>
  <maxWeakCount>9</maxWeakCount>
  <stageThreshold>-1.5002462863922119e+00</stageThreshold>
  <weakClassifiers>
    <_>
      <internalNodes>
        0 -1 454877 1.0872006416320801e-02</internalNodes>
      <leafValues>
        -6.1283063888549805e-01 3.9910313487052917e-01</leafValues></_>
    <_>
      <internalNodes>
        0 -1 401953 6.8267688155174255e-02</internalNodes>
      <leafValues>
        -6.1191225051879883e-01 2.0194287598133087e-01</leafValues></_>
    <_>
      <internalNodes>
        0 -1 552616 -2.1772868931293488e-03</internalNodes>
      <leafValues>
        -9.8556762933731079e-01 1.2909178435802460e-01</leafValues></_>
    <_>
      <internalNodes>
        0 -1 615062 2.6552630588412285e-03</internalNodes>
      <leafValues>
        -3.0526101589202881e-01 5.7869368791580200e-01</leafValues></_>
    <_>
      <internalNodes>
        0 -1 443411 -4.8559382557868958e-03</internalNodes>
      <leafValues>
        -8.4862643480300903e-01 2.2231414914131165e-01</leafValues></_>
    <_>
      <internalNodes>
        0 -1 536333 -4.0838150307536125e-03</internalNodes>
      <leafValues>
        7.9150259494781494e-01 -2.5352907180786133e-01</leafValues></_>
    <_>
      <internalNodes>
        0 -1 42288 2.0169059280306101e-04</internalNodes>
      <leafValues>
        2.4748954176902771e-01 -8.4109634160995483e-01</leafValues></_>
    <_>
      <internalNodes>
        0 -1 756923 -4.1967615834437311e-04</internalNodes>
      <leafValues>
        2.5696307420730591e-01 -5.5944782495498657e-01</leafValues></_>
    <_>
      <internalNodes>
        0 -1 652796 -1.9427206367254257e-02</internalNodes>
      <leafValues>
        4.9993848800659180e-01 -3.1548640131950378e-01</leafValues></_></weakClassifiers></stage14>
</opencv_storage>
