<?xml version="1.0"?>
<opencv_storage>
<stage9>
  <maxWeakCount>6</maxWeakCount>
  <stageThreshold>-1.2418657541275024e+00</stageThreshold>
  <weakClassifiers>
    <_>
      <internalNodes>
        0 -1 247644 -1.0530376806855202e-02</internalNodes>
      <leafValues>
        1.3590264320373535e-01 -7.0802921056747437e-01</leafValues></_>
    <_>
      <internalNodes>
        0 -1 470711 -1.2969078961759806e-03</internalNodes>
      <leafValues>
        2.0502442121505737e-01 -6.6944134235382080e-01</leafValues></_>
    <_>
      <internalNodes>
        0 -1 619377 2.0939968526363373e-02</internalNodes>
      <leafValues>
        -6.5147668123245239e-01 2.7800661325454712e-01</leafValues></_>
    <_>
      <internalNodes>
        0 -1 447631 -8.1432706792838871e-05</internalNodes>
      <leafValues>
        2.6212072372436523e-01 -7.5493150949478149e-01</leafValues></_>
    <_>
      <internalNodes>
        0 -1 22444 -1.1846153938677162e-05</internalNodes>
      <leafValues>
        2.1557387709617615e-01 -7.5441849231719971e-01</leafValues></_>
    <_>
      <internalNodes>
        0 -1 636736 1.9444106146693230e-03</internalNodes>
      <leafValues>
        -3.9195844531059265e-01 5.0077354907989502e-01</leafValues></_></weakClassifiers></stage9>
</opencv_storage>
