<?xml version="1.0"?>
<opencv_storage>
<stage15>
  <maxWeakCount>10</maxWeakCount>
  <stageThreshold>-1.4871330261230469e+00</stageThreshold>
  <weakClassifiers>
    <_>
      <internalNodes>
        0 -1 329668 -1.9771490246057510e-02</internalNodes>
      <leafValues>
        2.3278687894344330e-01 -6.3185840845108032e-01</leafValues></_>
    <_>
      <internalNodes>
        0 -1 659861 8.6237632785923779e-05</internalNodes>
      <leafValues>
        1.3552136719226837e-01 -7.3148769140243530e-01</leafValues></_>
    <_>
      <internalNodes>
        0 -1 502 -6.3583984971046448e-02</internalNodes>
      <leafValues>
        5.5145585536956787e-01 -2.8359097242355347e-01</leafValues></_>
    <_>
      <internalNodes>
        0 -1 535927 8.2396045327186584e-03</internalNodes>
      <leafValues>
        -3.5091203451156616e-01 4.2562171816825867e-01</leafValues></_>
    <_>
      <internalNodes>
        0 -1 40140 -8.4427301771938801e-05</internalNodes>
      <leafValues>
        2.0321616530418396e-01 -8.3669662475585938e-01</leafValues></_>
    <_>
      <internalNodes>
        0 -1 421068 -4.8670719843357801e-04</internalNodes>
      <leafValues>
        3.8123878836631775e-01 -3.5790398716926575e-01</leafValues></_>
    <_>
      <internalNodes>
        0 -1 7747 -2.9474500566720963e-02</internalNodes>
      <leafValues>
        2.0241713523864746e-01 -7.9189676046371460e-01</leafValues></_>
    <_>
      <internalNodes>
        0 -1 600644 2.4058446288108826e-03</internalNodes>
      <leafValues>
        -4.4262108206748962e-01 3.4539771080017090e-01</leafValues></_>
    <_>
      <internalNodes>
        0 -1 529358 3.1884334748610854e-04</internalNodes>
      <leafValues>
        1.5576541423797607e-01 -9.4454640150070190e-01</leafValues></_>
    <_>
      <internalNodes>
        0 -1 425786 -2.4045277386903763e-03</internalNodes>
      <leafValues>
        -7.5852406024932861e-01 1.3800451159477234e-01</leafValues></_></weakClassifiers></stage15>
</opencv_storage>
