<?xml version="1.0"?>
<opencv_storage>
<stage13>
  <maxWeakCount>7</maxWeakCount>
  <stageThreshold>-1.2301555871963501e+00</stageThreshold>
  <weakClassifiers>
    <_>
      <internalNodes>
        0 -1 235432 -1.2667855620384216e-01</internalNodes>
      <leafValues>
        7.9894647002220154e-02 -7.0658206939697266e-01</leafValues></_>
    <_>
      <internalNodes>
        0 -1 621158 -6.1546408687718213e-05</internalNodes>
      <leafValues>
        2.2779339551925659e-01 -6.5966969728469849e-01</leafValues></_>
    <_>
      <internalNodes>
        0 -1 316929 -1.5858771279454231e-02</internalNodes>
      <leafValues>
        1.9000324606895447e-01 -7.6577413082122803e-01</leafValues></_>
    <_>
      <internalNodes>
        0 -1 473028 -1.6400776803493500e-03</internalNodes>
      <leafValues>
        -7.2126990556716919e-01 2.6167500019073486e-01</leafValues></_>
    <_>
      <internalNodes>
        0 -1 22622 9.3736613052897155e-05</internalNodes>
      <leafValues>
        1.6164858639240265e-01 -9.3075484037399292e-01</leafValues></_>
    <_>
      <internalNodes>
        0 -1 717496 -5.1155795517843217e-05</internalNodes>
      <leafValues>
        2.4578088521957397e-01 -5.9598535299301147e-01</leafValues></_>
    <_>
      <internalNodes>
        0 -1 671075 2.1198759786784649e-03</internalNodes>
      <leafValues>
        -3.8656419515609741e-01 4.6487364172935486e-01</leafValues></_></weakClassifiers></stage13>
</opencv_storage>
