<?xml version="1.0"?>
<opencv_storage>
<stage3>
  <maxWeakCount>5</maxWeakCount>
  <stageThreshold>-1.4625123739242554e+00</stageThreshold>
  <weakClassifiers>
    <_>
      <internalNodes>
        0 -1 503501 9.7651761025190353e-03</internalNodes>
      <leafValues>
        -7.7337461709976196e-01 5.7197451591491699e-01</leafValues></_>
    <_>
      <internalNodes>
        0 -1 471032 -3.5983889829367399e-03</internalNodes>
      <leafValues>
        4.3341231346130371e-01 -7.7924245595932007e-01</leafValues></_>
    <_>
      <internalNodes>
        0 -1 411738 -7.3828585445880890e-03</internalNodes>
      <leafValues>
        4.1078060865402222e-01 -7.0014911890029907e-01</leafValues></_>
    <_>
      <internalNodes>
        0 -1 599994 1.0745716281235218e-03</internalNodes>
      <leafValues>
        -6.4680022001266479e-01 5.3207004070281982e-01</leafValues></_>
    <_>
      <internalNodes>
        0 -1 176267 -1.1482534464448690e-03</internalNodes>
      <leafValues>
        3.2612431049346924e-01 -9.4359451532363892e-01</leafValues></_></weakClassifiers></stage3>
</opencv_storage>
