<?xml version="1.0"?>
<opencv_storage>
<stage14>
  <maxWeakCount>9</maxWeakCount>
  <stageThreshold>-1.6616995334625244e+00</stageThreshold>
  <weakClassifiers>
    <_>
      <internalNodes>
        0 -1 7140 3.9562894962728024e-03</internalNodes>
      <leafValues>
        -5.8134245872497559e-01 3.4579437971115112e-01</leafValues></_>
    <_>
      <internalNodes>
        0 -1 553268 -5.8238417841494083e-04</internalNodes>
      <leafValues>
        2.2638423740863800e-01 -7.5048917531967163e-01</leafValues></_>
    <_>
      <internalNodes>
        0 -1 652924 -4.8415539786219597e-03</internalNodes>
      <leafValues>
        2.2684964537620544e-01 -7.1043938398361206e-01</leafValues></_>
    <_>
      <internalNodes>
        0 -1 241134 4.4200876727700233e-03</internalNodes>
      <leafValues>
        -6.6423952579498291e-01 2.8473195433616638e-01</leafValues></_>
    <_>
      <internalNodes>
        0 -1 41581 9.1621812316589057e-05</internalNodes>
      <leafValues>
        1.7548522353172302e-01 -9.3728578090667725e-01</leafValues></_>
    <_>
      <internalNodes>
        0 -1 527421 -7.2456453926861286e-04</internalNodes>
      <leafValues>
        4.8727411031723022e-01 -3.5053527355194092e-01</leafValues></_>
    <_>
      <internalNodes>
        0 -1 472899 8.6732506752014160e-03</internalNodes>
      <leafValues>
        -2.2103437781333923e-01 8.1567502021789551e-01</leafValues></_>
    <_>
      <internalNodes>
        0 -1 472545 5.1262024499010295e-05</internalNodes>
      <leafValues>
        -6.2991070747375488e-01 2.9992541670799255e-01</leafValues></_>
    <_>
      <internalNodes>
        0 -1 483223 2.7478089556097984e-02</internalNodes>
      <leafValues>
        -8.2173347473144531e-01 1.8454560637474060e-01</leafValues></_></weakClassifiers></stage14>
</opencv_storage>
