<?xml version="1.0"?>
<opencv_storage>
<stage15>
  <maxWeakCount>10</maxWeakCount>
  <stageThreshold>-1.5117552280426025e+00</stageThreshold>
  <weakClassifiers>
    <_>
      <internalNodes>
        0 -1 624522 -2.8084177523851395e-02</internalNodes>
      <leafValues>
        5.6608480215072632e-01 -5.1375687122344971e-01</leafValues></_>
    <_>
      <internalNodes>
        0 -1 621673 1.1395257897675037e-03</internalNodes>
      <leafValues>
        -5.0269848108291626e-01 3.4742704033851624e-01</leafValues></_>
    <_>
      <internalNodes>
        0 -1 85817 2.4328190193045884e-04</internalNodes>
      <leafValues>
        1.6109670698642731e-01 -8.8143575191497803e-01</leafValues></_>
    <_>
      <internalNodes>
        0 -1 470952 -3.1929323449730873e-03</internalNodes>
      <leafValues>
        2.3784923553466797e-01 -6.4379948377609253e-01</leafValues></_>
    <_>
      <internalNodes>
        0 -1 421816 5.0638718530535698e-03</internalNodes>
      <leafValues>
        1.6905429959297180e-01 -8.3876037597656250e-01</leafValues></_>
    <_>
      <internalNodes>
        0 -1 348781 4.4922204688191414e-03</internalNodes>
      <leafValues>
        1.4901770651340485e-01 -8.4501886367797852e-01</leafValues></_>
    <_>
      <internalNodes>
        0 -1 409336 -3.8911742158234119e-03</internalNodes>
      <leafValues>
        5.4476159811019897e-01 -3.1434321403503418e-01</leafValues></_>
    <_>
      <internalNodes>
        0 -1 221085 -3.0913812224753201e-04</internalNodes>
      <leafValues>
        2.7403303980827332e-01 -6.7276936769485474e-01</leafValues></_>
    <_>
      <internalNodes>
        0 -1 676906 5.9823276387760416e-05</internalNodes>
      <leafValues>
        2.6711165904998779e-01 -6.0156029462814331e-01</leafValues></_>
    <_>
      <internalNodes>
        0 -1 575996 -1.0073294397443533e-03</internalNodes>
      <leafValues>
        4.5991119742393494e-01 -3.6571040749549866e-01</leafValues></_></weakClassifiers></stage15>
</opencv_storage>
