<?xml version="1.0"?>
<opencv_storage>
<stage7>
  <maxWeakCount>6</maxWeakCount>
  <stageThreshold>-1.1598640680313110e+00</stageThreshold>
  <weakClassifiers>
    <_>
      <internalNodes>
        0 -1 246718 -4.9099348485469818e-02</internalNodes>
      <leafValues>
        2.3316061496734619e-01 -7.1428573131561279e-01</leafValues></_>
    <_>
      <internalNodes>
        0 -1 554052 3.5634377854876220e-04</internalNodes>
      <leafValues>
        -6.7701876163482666e-01 3.2547396421432495e-01</leafValues></_>
    <_>
      <internalNodes>
        0 -1 15381 -4.4101536332163960e-05</internalNodes>
      <leafValues>
        2.2950975596904755e-01 -8.9017498493194580e-01</leafValues></_>
    <_>
      <internalNodes>
        0 -1 4688 -3.4106895327568054e-04</internalNodes>
      <leafValues>
        -8.9562070369720459e-01 2.9828372597694397e-01</leafValues></_>
    <_>
      <internalNodes>
        0 -1 671623 1.6240673139691353e-03</internalNodes>
      <leafValues>
        -5.0478535890579224e-01 4.3949007987976074e-01</leafValues></_>
    <_>
      <internalNodes>
        0 -1 540173 -7.2265253402292728e-03</internalNodes>
      <leafValues>
        3.9984399080276489e-01 -5.7201123237609863e-01</leafValues></_></weakClassifiers></stage7>
</opencv_storage>
